[784, 128]
[0.0008249605, -0.00031395527, -6.79551e-5, -0.00037673936, -0.0005770889, -5.671896e-5, -0.0003171194, 0.00035283357, -0.00045194192, -1.1826372e-5, 0.0005155076, -0.00029141086, 0.00022278387, -6.217331e-5, 0.00020339138, -0.00027549622, 0.00022763634, -0.00025450086, -0.00010028504, 4.8135436e-5, 0.0005767584, 8.2579194e-5, -0.00010552873, -0.00029441115, 0.0004102175, -0.00039307555, -0.00041509746, 4.548071e-5, 0.00021558875, 0.0006664737, -0.00010677081, 0.00015163097, 0.0002354835, 0.00024487544, -0.0005561749, -0.00014271378, 0.00039364985, 1.6487314e-5, 0.00032035462, -0.00013147465, 3.8799848e-5, 0.00016763667, 0.00013705615, -0.00019077725, 4.8398048e-5, 4.1514228e-5, -0.00032618002, 0.00046064775, 0.00016085625, 3.0149966e-5, 0.0002709783, -0.0002794764, -0.0005400335, 0.00028249275, -0.00016878267, -0.0003211328, 0.00039415175, 0.00017479029, 0.00021226231, 0.00029008265, -0.00013989661, -0.00056746014, 0.00056959875, -0.00010718526, 2.655481e-5, 0.0004239726, -0.00015961239, 0.00044502981, -0.00016840074, 0.00018332253, -0.0003237699, 0.00023124724, 0.00043758343, -0.00015685573, -0.00023429006, 0.00045035433, -0.0003158499, -0.00012113802, -0.00014342615, -0.000114788636, 0.00040445567, -0.00014499696, -0.00021819504, -0.00011736973, -0.0004586912, 0.0005508789, 0.00032886385, -0.00035852953, 1.2809368e-5, 0.00040732668, 0.00052435487, 0.00049179286, -0.00048145454, 0.0002408924, -0.00016218847, -7.635415e-5, 0.0001285224, -0.0002104599, -0.00031185985, -0.00044825787, 8.000344e-5, 5.9053193e-5, -0.00050255994, 0.00049754285, -0.0002896457, 9.694008e-5, 7.519643e-5, 0.00044670104, -0.0001725867, 0.000120154255, 0.0001990764, -0.00034711175, 0.00029769202, -0.00022915822, -0.00030570987, 0.00027144066, 9.2710456e-5, 0.0004349193, 2.1683269e-5, 0.00039166605, -9.64424e-5, 0.00043414536, -5.868043e-5, -0.0002534969, 0.00029596672, -0.00014895952, -0.00033138052, -0.00048600184, -0.00037049316, -0.00038769268, 5.929176e-5, -0.00024618983, -0.00026326528, 0.00013057055, -0.00039817457, 2.3976552e-5, -0.00019202498, 7.085002e-5, -0.00015073773, -0.00012298462, -0.00043063445, -0.000114600865, -0.0001957623, -0.000327784, -0.00093856704, 0.00017967571, -0.00011666378, 0.00057814433, 0.00018669482, 0.00013507983, -0.00021004007, 0.00030715723, 9.403345e-5, -0.000103942904, 0.00023904271, 0.0002947352, -0.00038748424, -0.00045688092, -0.00020018332, -0.00026978442, 3.9229995e-5, -3.604208e-5, 8.080971e-5, 0.000119565484, -0.00035431527, -0.0004121101, -0.0005395527, -0.00064235314, 0.0004043906, -0.00015983697, -0.00024648884, 0.00018026409, 0.00080390857, -8.860303e-5, -0.000248653, -7.52538e-5, 0.00040507514, -3.464963e-5, -0.00013007497, -9.5236945e-5, -8.816326e-5, -0.00066101324, -0.00033345952, 0.000258686, 0.00019087677, 0.00031104093, -4.388092e-5, -0.00023705121, -0.00048541557, -0.00035559206, -0.00067461416, -0.00031884416, 0.00014737659, -0.00024353975, 0.00020354128, -0.00013251687, 0.00031147912, 0.0004907207, 0.00020480376, 0.00049919955, 0.0006631035, 0.0004178521, -0.00035360298, 0.00044571247, 0.00031483648, 0.0005202055, -0.00020378373, 2.245899e-5, 0.00018916956, -8.5530526e-5, 0.00033392067, -9.614375e-5, 0.00041205419, -0.00015232319, 0.00024126327, 0.0004632354, 0.00013030812, -0.00044947196, 0.00057038106, -0.0004431262, -0.0006676595, 0.00027111336, -0.0003589897, -6.176147e-6, -0.0009315348, 0.00015337348, -0.00045895373, 0.00061802013, 0.00016841934, 0.00010941993, -0.0004645424, 0.0002820666, -0.00022459775, -0.0002258561, -0.0001434481, -0.00019195111, -0.00052976044, -0.00024325211, -0.00027951694, 0.0002533672, -9.2901006e-5, 3.692662e-5, 0.00015970305, 0.00030260708, 8.224956e-5, -0.00013565624, -0.00022702439, 7.611209e-5, -0.00061428174, 0.00033916734, -0.00016888918, 0.00017903547, 8.9428264e-5, 4.7723846e-5, -0.00035141077, 0.0004272382, 1.3415151e-5, -0.00036736298, 0.00017735151, 0.00019986586, 0.00013623541, 0.00026956547, -0.00034605773, 0.0006998498, -0.00044490976, 0.00040260653, -0.00023594685, -0.0005231887, -0.00026048627, -3.4959656e-5, 0.00014093908, -0.00012043029, 2.4911407e-5, -0.00019430016, -2.6596777e-5, -9.652746e-5, -0.00012804859, -0.00017367206, -0.00012684567, -0.00014635676, -0.00040591243, -8.634724e-5, -0.00015632412, 0.00031525336, -0.0005303308, 0.00015137311, 2.9912007e-5, 7.737909e-5, 9.7799006e-5, 5.153876e-5, 0.00038819562, -0.00011135845, 0.0003822508, 0.00047494087, 9.8773286e-5, -0.00018019199, -0.0005078784, -0.00029686326, -0.00024087464, -0.00043844315, 0.00054895214, 0.00037305895, -0.00012466234, 6.896161e-5, -0.00028885572, -0.0003313742, 0.0002490722, -0.00037726414, -0.00041191123, 0.00063726545, 0.00032909834, -0.0005179479, -0.00020162105, -0.0001505907, -6.797383e-5, -0.0001907958, 6.234207e-5, -8.737505e-5, -0.0006170122, -5.976175e-5, -6.060586e-5, 0.00041134172, -1.1158042e-5, 1.9236299e-5, -8.167173e-5, 5.1928942e-5, 0.00036703708, -0.0007367147, 0.00033914635, 0.0005203245, 7.220457e-5, 0.0001329003, 0.0004329901, -0.00014633371, -0.00046674113, 5.329618e-5, -2.3431048e-5, 0.00047958439, 0.00019790797, -5.604186e-5, -0.00019987156, 8.914184e-5, 0.00033419396, 0.00026072795, -0.00012526252, -4.7512465e-5, -0.000311871, 0.00019029072, 0.00013217474, -0.00053080625, 0.000434853, -0.00026365605, -0.00033592153, 0.00059190847, -0.00019055625, -2.0510313e-5, 0.00024223907, -0.00018612115, -0.00016737456, 0.00025856082, -0.00043221004, -9.488884e-5, 9.979809e-5, -9.808868e-5, -6.422615e-5, -0.00027838576, 0.00025923448, 8.036921e-5, 0.00024890443, 0.00049375196, 0.00031092702, 0.00028748313, -7.0712005e-5, -0.0005013477, 0.00043457435, 0.00013344799, 0.0002005058, -4.5715627e-5, -0.0006081215, -7.531139e-5, -0.00046744657, -0.00027124104, -0.0002663291, -0.0003550463, -0.0005542221, -0.0001860049, -0.0006069683, -7.2775896e-5, 5.593032e-5, 0.00038414088, -0.00017459341, -0.00063959934, -0.00021628139, -0.00027507512, -0.0004585658, 0.00026950703, -3.0537292e-5, -0.0001560137, 7.0841044e-5, 0.00042181058, -0.00029874092, 0.00020025719, -0.00016304835, -0.00020764039, -0.00010075138, 0.000101379985, 0.00036652756, 2.3562721e-5, -4.5006287e-5, 0.00034959023, 2.277504e-6, 6.557787e-5, 0.0005528123, 0.000121714445, 0.00028098168, 0.00033260693, 2.2122767e-5, -0.00020211737, -0.0001755361, 0.0003552578, 0.00033636676, 9.6837764e-5, 0.00018148022, 0.00038166315, -0.0008115404, -0.00015440818, 0.00034104168, 6.911631e-5, 1.5277219e-5, -0.00038787382, 3.3021734e-5, 5.4944634e-5, 0.00011814074, 0.00020709478, -0.00026317505, -5.2823914e-5, -0.00053172826, -9.756626e-5, -0.0002093912, 5.6967045e-5, -0.00015569842, 2.16632e-5, -0.00019106612, -0.00021929354, -0.00026136535, 0.00037705348, -7.482805e-5, -3.3251603e-5, -0.00037116703, -0.00030453588, 0.00014270998, 0.00042209268, 8.745104e-6, 9.361077e-5, -0.0002587206, -0.0005685085, -3.428331e-6, -0.00026931733, -0.00019745519, 2.1580997e-6, 7.065124e-5, 0.00018188605, -0.0003264799, 0.00042497632, 0.00039271623, 5.015856e-5, -0.0005063709, -4.1808642e-5, 0.00029446813, -0.00028934155, 6.686653e-5, 8.709215e-5, 4.393701e-5, 9.5386185e-6, -0.00074953027, -0.00028304014, -0.0002122028, -0.00048632445, 5.4395103e-5, 3.576572e-5, -1.7326898e-5, -0.00019086964, 0.000176731, -0.00064710213, -2.6791742e-5, 0.00024130248, 6.384038e-5, 0.00052895636, -0.00010955578, 0.0002735427, -0.0003932682, 4.0798295e-5, -2.6661033e-5, -0.0003720242, -0.00030027135, 0.0003065028, -0.00042970275, -2.9687415e-5, -0.0004051358, 0.0005333586, -0.00044477178, 6.331401e-5, 0.00057621894, -0.0003266947, -0.00039035303, 7.937492e-5, 0.00012536344, 0.00021870229, -0.000116848656, 0.00016419351, -3.087752e-5, -0.00011600992, 0.0001622918, 7.846825e-5, -0.0002013026, 0.00018767992, -4.910909e-5, -0.00024589643, -0.000152548, 0.00012339516, 0.0007529226, -0.00019384059, -0.0002254901, 0.0003721934, 9.3817456e-5, 5.6085883e-5, -0.00023211642, -5.068017e-7, -0.00039239088, 0.000494372, -1.3755486e-5, 5.6099634e-5, -0.00012468259, 0.00017619126, 0.0005821467, -0.00066698, 6.960149e-5, -4.3493048e-5, -0.00034800902, -5.0182913e-5, -1.9937728e-5, 0.00012419355, -0.00016707201, -7.5032214e-5, -0.00035797738, 0.00054518314, -0.00027316736, 0.0007370311, 5.0589577e-5, -1.7032598e-5, -0.0007869947, 0.00012398916, -0.00078912504, -0.0004270212, 0.0001291127, -0.00017784881, 0.00030208242, -0.00022859921, -0.0002820706, -0.00034373582, -0.00042975217, -0.00080352055, 9.025314e-5, 0.00029337726, -0.0003558112, 0.0001391137, -0.00016842618, -0.0005788721, 3.426609e-5, 0.0002682282, -0.00026126756, -0.00020683148, 0.00019083175, -0.00037577373, -0.00093096105, -0.0005812672, 6.716123e-5, 4.7750455e-5, -0.00012850072, 5.4983284e-5, 3.7054648e-5, 0.00018888328, -3.5569894e-5, 0.00020962433, -0.00016309437, -9.368898e-5, 2.3689106e-5, -0.0004903074, 0.0002060018, 0.0003289155, 0.00025528576, -0.00032044147, 0.00010017118, -0.00029044386, 3.3440014e-5, 0.0007094095, -0.00017222184, -0.0009316357, 0.0003284321, -0.00034573145, 0.000508468, 0.00027531918, 0.0001734831, 0.0005342212, -0.00030435182, -8.739071e-5, -3.2159336e-5, 0.00039290765, 2.0633073e-5, 6.110845e-5, 0.00048070532, 0.0005696335, 0.00018031576, 1.5463429e-5, 0.00027359906, -1.2864839e-5, -0.0002092626, 0.00037303142, -0.0004862207, -5.7719873e-5, 0.0004442437, -4.354121e-5, -0.00033177974, 0.00015819064, 0.00043405482, -0.00014983564, -0.00046713697, -0.00040051612, 0.00065697107, 0.0004143058, -0.00021287642, -0.00041309334, 3.1863136e-5, -7.1629634e-5, -0.00048400002, 7.7998004e-5, 0.00034743722, -5.647211e-6, 2.4012099e-5, -0.00032861557, -0.00012055621, 0.00035637498, 0.00041359678, -0.0001980556, -0.0003837776, 0.00016475891, 0.0002378044, -0.00019943433, 0.00021562687, 0.00038057775, 0.00030526382, -0.00032343445, -6.5377164e-5, -0.00017757193, 5.2819072e-5, -0.00023995269, 0.00047494486, -0.00049194135, 0.0001586397, 1.9201892e-5, -0.0002844702, 8.414723e-5, 3.16362e-5, 1.8062923e-5, 0.00059908937, 4.104601e-5, -0.0006665532, -0.00015373253, -0.00015211747, -1.4602899e-5, 0.00015687519, -0.00054371683, 0.00026865676, 0.00027574017, 0.00017645629, -0.00019674191, -9.4134615e-5, 0.00034643308, -0.00018616006, 3.4187728e-5, -0.00042230278, 0.0002565869, 0.00045705325, -0.00023285353, 3.2225544e-5, -0.00045375663, -0.0003618236, -0.00029288526, -0.00073215127, -9.6226315e-5, -4.4134067e-5, 0.000330066, -0.00021278966, 0.00018234689, -0.00026242808, -0.0005182174, -0.000358108, -0.00017779799, 0.0003559974, -3.3301152e-5, 0.00026139143, 0.00016511616, -0.00015938576, 0.0005115788, -4.11835e-5, -0.00037238668, 5.5510613e-5, 8.005672e-5, -3.9781928e-5, -6.227477e-5, -0.00012302591, 0.0003596765, -0.0001006987, -4.9025984e-5, 5.0968574e-5, 4.0658593e-5, 0.0006664783, 3.8388564e-5, 0.0003110152, 0.00012168249, -4.617401e-5, 0.00036557467, 0.00021718544, 2.5649988e-5, 1.1123529e-5, -0.00013680807, 0.00039414898, 2.3314898e-5, 0.0004455546, 0.00040178918, 0.00028513, -0.0002326742, 0.00015873242, -0.00027144552, -0.00030163402, -0.00012384675, -0.00022746324, 0.000114247276, -0.0004394357, -0.00022153794, 0.00018420514, 0.0003102795, 3.4099077e-5, -2.1619917e-6, 4.3410305e-6, -0.00020673247, -0.00019216968, -0.0006451179, -2.169936e-5, -0.00019642538, -0.000116463205, -0.0003939317, 0.00034030905, 0.000461913, 0.00023521137, 5.507284e-5, -0.00022325195, -0.00028566996, 0.0003424877, 0.00025952302, 2.9073122e-5, -0.00022218736, -0.0005018445, -0.00081159733, -0.0007947896, 0.00033147793, 1.3616251e-5, -9.4007926e-5, 0.00017399114, 0.00019015126, -5.0973653e-5, -0.0002856296, -0.00016112399, 4.0988718e-5, 0.0001760865, -0.00029159765, 7.0399976e-5, -0.00029923025, 7.063413e-5, -0.00017183239, 3.2725384e-5, -0.00044835516, -0.0006656262, 0.000344728, 0.0005595987, 0.00013365774, 0.0001811888, 9.892018e-7, 0.00011922223, -0.00033352964, -0.00038669436, -0.00032705825, 0.00039589364, 0.00021307607, 0.00022414992, -0.00034701472, 7.6989614e-5, -0.00019366965, 0.00023347429, -0.00057117554, 0.00027514, -0.000200113, 0.00017057691, -7.677533e-5, 0.00014392985, 0.0011009035, -1.0145643e-5, 0.0005379825, 0.0002867117, 0.00026768318, -0.0005472036, 5.4589727e-5, -0.0002104605, 0.00087178673, 0.0004895141, 0.00023972814, 0.00072835287, -0.0006625354, 0.00022907248, 0.0005387853, -0.00050868205, -8.051004e-6, 1.9215227e-5, 0.000103543694, -0.0005975103, -0.00064304663, 0.00027472927, -3.8046197e-5, 0.0005922456, -0.0007095533, 1.4286278e-5, 0.00018608173, 0.00043192712, 4.957472e-5, -0.00010061965, -0.0006431188, 0.0008561883, -4.283091e-5, 0.00042795017, -0.0007309627, -8.537865e-5, -0.00031089722, 0.00026371088, -0.00020124522, 6.0903207e-5, 0.0007697877, 0.00044796913, 9.3356815e-5, 9.47473e-6, -0.00027332752, -0.00043620905, -0.0008265848, -0.0002485259, 0.00023654253, -0.00019337167, 1.540729e-5, 0.00030087077, -0.00036384282, 0.000407985, 0.00031955368, -0.00031942604, -9.376232e-5, 0.00030938856, 0.00017477079, 3.1112868e-5, 0.00044059512, -4.5028164e-6, -6.688173e-5, 0.00018666776, -3.6732203e-5, -3.6481633e-5, -0.00026911916, 0.00047661611, -2.336114e-5, -1.4232292e-5, -5.4573204e-5, -5.7872808e-6, 0.00017700213, -7.579397e-5, 0.00034961948, 0.0003175567, -1.0134488e-5, 0.00041987278, 0.00046099914, 0.00014555281, -0.00017843307, 6.602172e-5, -0.00044387445, 0.000120313896, 0.00017655543, 0.0001634557, 0.00029740756, 0.00043379987, 0.00064721843, -0.00033978582, 0.00043100666, 0.00029254373, 0.00019059134, 0.00015964611, -0.00021624296, -0.00018046876, -0.00074460934, 0.0006034647, 0.00035944209, 0.0002561195, 0.00017161331, -8.493116e-5, -0.00046332844, -0.0006678991, -0.00034140126, 0.00023625065, 5.169878e-5, -0.00011726407, -0.00040710793, 0.00019313206, 0.0002319424, 0.0001930793, -0.00062557263, 0.00029754685, -9.088621e-6, -0.0002568823, -0.00015666401, -2.9555024e-5, -4.6653906e-7, -0.0004344179, 7.237323e-5, 0.00023889856, -0.00016619965, 2.2568895e-5, -0.00023016203, -0.00027907678, 6.1995074e-6, -0.00026620476, -0.00060296705, -0.00027409472, -2.3753635e-5, 0.0002199495, 0.0003882004, 7.166534e-6, -7.534227e-5, -0.00069932, -0.0002361082, -6.494667e-5, 0.00014934922, 0.00097459625, -2.6118125e-5, -0.0003741646, -0.00012781445, 9.469327e-5, -0.00024224372, 8.080835e-6, -0.00010480234, -5.529761e-5, -0.0005530479, 9.677788e-5, 0.0002731812, 0.00041930113, -0.0005238157, -0.00033391095, 0.00019971374, -0.00035961234, -0.00031760844, -0.00019461001, -0.00023152561, 0.0001962941, 0.00041069908, -6.193491e-5, -0.00035353424, 0.00012182564, 0.00021900005, 0.0004697665, 6.057507e-5, -8.508634e-6, -0.00016876173, -0.00027838844, 8.854244e-5, 8.327732e-5, 0.0004963509, 1.7516619e-5, 4.4228887e-5, -0.00020969825, 1.3037728e-5, 0.00018589493, -0.0003606648, 1.2766246e-5, 4.9576163e-5, -0.00028005528, -0.00023267894, 0.00026661294, 0.00017803587, -0.0006332805, -0.0002565272, -1.7031587e-5, 0.00016920199, -0.00028763217, -0.00017674275, 9.443804e-6, -0.0005200403, -3.333648e-5, 0.00027154209, -0.0006620548, 0.000100856494, -0.00032987175, 0.00013151999, -3.5470606e-5, -0.00015233409, 8.252575e-5, 0.00043739838, 0.00027931403, -0.00020353134, 0.000435351, -0.000107366526, 0.00027514438, 0.00044389867, 0.00081675645, 0.00026273789, 0.00011147036, -0.00029239777, -0.0003557316, -7.3247465e-5, 0.00038119196, 6.025425e-5, 0.00021624082, 0.00016948441, -0.0007249548, 0.0005734076, 0.0002972679, 0.0003642663, 0.0004235577, -0.00019783655, -3.4936962e-5, -0.0001532168, 0.0001237016, -0.00022055254, -4.3093187e-5, -0.0005546266, 0.00013606704, 0.00026206873, -0.0003679696, -2.8828142e-6, -2.42608e-6, 2.5239908e-5, -8.913131e-5, 0.0006374587, 0.0002991142, 0.000109708286, -1.39242875e-5, 0.0003316955, -0.00027244823, -6.668955e-5, 0.0001825632, 0.00023625471, -0.00010448697, -0.00065138086, -0.0007561884, 9.2784576e-5, 0.00014445392, 0.00010682971, -7.632512e-5, 0.00026907466, 0.00053079706, -7.4494936e-5, 0.00030928457, 0.00060295576, 0.00014884875, -0.00015995836, 0.00026226582, 3.302285e-5, -0.00048158807, -4.9844017e-5, -0.00041907904, -0.00010343711, -0.00040400354, -0.00015233667, -0.000369707, 0.00031064832, -9.225403e-5, 0.0002508401, -0.0007588155, -0.00046507418, -0.00019594423, 0.00013915834, 0.00012783619, 8.39659e-5, -0.00052365224, -0.00018648717, 0.00022162743, -0.00016080408, 0.00021884877, -0.00018649518, -0.00030662844, -0.00043394402, -2.790962e-5, 0.00030398802, 0.00054489117, -7.995146e-6, -5.920527e-5, 0.00019411794, -1.5490179e-5, 0.00016926396, 1.8304523e-5, -0.00036751103, 9.732108e-5, 0.0001713953, -0.00027226022, -0.00040245318, -7.549894e-5, 0.00057708024, 0.0005549809, 0.00016497196, 0.00020133964, -6.165107e-5, -0.00012573868, 0.00022065437, -0.0001888596, -0.00034602243, -0.00026886366, -0.0004803228, -0.0001739108, 9.866933e-5, 0.0005271311, -1.4328232e-6, -0.000542266, -5.1360224e-5, -0.0002650507, -0.0004296931, 0.00025131315, 0.00042321722, -0.0010571138, -0.0003215001, 0.00034123583, 0.000147036, 0.00032555588, -1.5837988e-5, -5.697742e-5, 0.00027893207, 0.00010717586, -0.00019765669, 0.00023328554, 0.0006759578, 0.00012261227, 0.00020579311, 3.7845526e-5, -0.0001230618, 0.00039672962, -0.0004803546, 4.3254073e-5, 0.0002647669, -0.00032966884, -0.00013654317, -0.0001649678, 3.0198467e-5, -0.0005046444, 2.5310681e-5, -0.00013858182, -0.00018084988, 9.678351e-6, -0.00050540623, -4.5011035e-5, -0.00032796396, -0.00040259492, -0.00019772307, 0.0002888909, 0.0002852626, -0.00028221012, 0.00050535146, 0.0004985588, 9.8237855e-5, -6.969734e-5, -0.00032729318, 0.00034389252, -0.0002892484, 0.00022747205, -0.00040221267, -1.9876741e-5, -0.00030835823, -0.000119356766, -0.00024921424, 0.00058334455, 0.00024416402, 0.0004672889, 0.00033621184, 0.00045266352, -0.00015227411, -0.0001927281, -0.0006151388, -0.0001769175, -8.465141e-5, 3.4353674e-5, 0.00016403927, -0.00018505476, -0.00063922146, -0.00014305317, 0.00013486625, -0.0003368712, -0.0002769083, 0.00039420283, 0.00018442945, 0.00018560397, 2.5507547e-5, -0.00018161259, 0.00017906947, -0.00036620253, 0.00043287696, -1.8027084e-5, 0.0005270168, -1.2861249e-5, 0.00012358779, -0.00040189485, 0.00077948265, -0.00047080536, -0.0003759002, -0.00027117622, -0.00035332734, 1.1123841e-5, -0.00022353187, -0.00021479689, 2.4567424e-5, 0.00061939744, 0.0002965644, -3.1207193e-5, -0.00017858043, -2.705416e-5, -0.0003461925, 0.00018539657, -0.00012166239, 0.0006835248, -0.000117431766, -0.00022243602, -4.4846875e-5, 4.795578e-5, -0.00019853041, 3.6364923e-5, -0.0005157534, -0.000307156, -0.00033155753, 0.00022885264, -0.00021141703, -0.0002959156, -0.00025872298, -0.00059223967, 0.00022081101, 0.00038910468, -6.482081e-5, -0.00032087622, 6.363502e-5, 5.5709283e-5, -0.00011497377, -8.208116e-5, -0.00054532307, 0.0001211995, 0.00038380115, 0.00025150008, -0.00038670935, -0.000638659, 0.00022854426, 3.217653e-5, 0.00026405914, 4.6868936e-6, -0.00016904394, 0.00035186706, -0.00035377982, 0.0002604806, 0.00029200624, -8.958309e-5, 2.8497021e-5, 0.00015619246, -0.0004250323, -0.00040494997, 0.00024032031, 0.00039081817, 0.00037115914, -0.00015795775, 0.00021638269, 0.00015026385, -0.0005942394, -0.0002592169, 0.0002810472, 4.777658e-5, -0.00020350296, -0.00026129582, 0.0007295466, -0.00038563437, 0.00031402757, -0.00017614072, 0.00013931496, 0.00012897636, -0.00013400131, 0.00023998416, 0.0010105701, -9.790679e-5, -0.00036454326, -0.00017844292, -0.00034263384, -0.0003815537, -5.0155726e-5, 0.00023691775, -0.00020241419, -0.00026833685, 3.4106444e-5, -0.00061447785, 9.267298e-5, 1.5009991e-5, 6.816994e-6, -0.00019736956, 0.00062095444, 0.000529642, -0.00031062556, -0.00011276891, -0.0006374189, -0.000100965124, 0.00022367903, 0.00020237415, -0.0003834473, -4.1879637e-5, -0.00069937255, 9.7218755e-5, 0.00029903333, -0.00020909379, -4.2399122e-5, -0.00031397038, -0.0003524492, -0.00022646393, 0.00051034323, 0.00050400756, 1.1535173e-5, -0.00020886291, 0.00052385416, 0.00019109884, 0.00033548384, -0.0001519257, 0.000617906, 4.483749e-5, 3.834687e-5, 2.023139e-5, -0.00033852234, -0.000114507355, 0.0004051929, 0.00029787133, 0.00019306532, -0.00035956, -0.00014868699, 0.0004343361, -0.0002304546, 0.00046253827, 1.257851e-5, 6.744714e-5, 0.000108038585, 0.0004279284, 0.00015436375, 0.0004216955, -0.0001785864, 0.0001888596, 5.9414157e-5, -0.00011268839, -0.00012046103, -0.00077031757, 0.00031804325, -0.00017615261, -0.00038982785, 0.00021202664, 0.00036188212, 6.448977e-5, -0.00054093136, -6.46421e-5, 0.00050694915, 9.053343e-6, 0.0003237084, 6.0205148e-5, 6.126678e-6, -0.0004449299, -6.071429e-5, 0.00022352574, 3.2890068e-5, -7.300726e-5, 7.703769e-5, -9.912399e-5, 0.00015159545, 0.00026524824, 0.0002064743, -0.00018364286, 0.0002077365, 0.0005821248, 5.611364e-5, 0.0004218938, -0.0003171087, 0.0005434689, 0.0002470845, -0.0004368738, -0.00039166448, 0.00053934986, 9.609621e-6, 0.00038456477, 0.00039715864, 0.00029923295, -5.8881833e-5, 0.00029729004, 0.00010081924, 0.00032651512, -0.00028993352, 0.0005507545, -0.00060677767, 0.00048020098, 0.00010857065, -0.00026672301, -0.0002732568, 0.00017957893, 0.00013681281, -8.360623e-5, 3.5566507e-5, 0.00045407988, -0.00018534, -0.0005424727, 0.0003788064, 4.4654327e-5, 0.00030859036, 0.0005230983, -0.00025072353, -0.00031908802, -3.303871e-5, -0.0004438777, 4.8326412e-5, 0.0005229319, -1.1919819e-5, 0.00016929109, -0.00021799414, 0.00021512932, -0.0007939638, 0.00024210374, 7.904772e-5, 0.0004302791, -5.3005802e-5, 7.082473e-5, -0.00014114563, 0.0004331326, -1.7324754e-5, 6.320923e-5, -0.0004340255, 2.84571e-5, -0.00014209437, 0.00013400806, 3.844369e-5, -0.000507507, -0.00032403637, 0.00010781578, -0.00016805666, -0.00023541528, -0.00067351334, -0.00014839944, -0.00022335998, -0.00050170656, 0.00030015482, 0.00018406894, -0.00015077883, 0.000110598194, 0.00016300529, 0.00013147568, -1.2823712e-5, 0.0007600363, -0.00020644342, -0.00020903532, 0.00018090312, 0.00019718114, -0.00024467683, -0.0002729007, -0.00039036176, 0.000392879, -0.00017908138, -0.00024315283, -0.00011400718, -1.4129312e-5, 6.815631e-7, 0.0002751708, -5.9077473e-5, -3.1491258e-5, -0.0002667961, -0.00021967397, -1.1293771e-6, 0.0004812845, -0.00016534094, 9.3189825e-5, -5.9340597e-5, -0.00037029877, -0.00015985474, -0.00039111957, 9.310626e-5, 0.00040418393, 0.00026892903, -1.0392656e-5, 0.00012134407, 0.00031981937, 0.00034751155, 0.00024200726, 8.076648e-6, -8.189893e-5, 0.00012333346, -0.00040969125, -0.0003545925, -5.1311206e-5, 0.0002301228, -0.00014280638, -0.0003721372, 1.6898988e-5, 0.00035377167, -0.00028602412, -0.000294264, 0.00015496931, 0.00013538208, 3.184858e-5, -0.00013449125, 4.6472876e-5, 0.00030536178, 8.947283e-6, 5.7368834e-5, 6.288322e-6, -0.00018590894, 0.00093644875, 1.111634e-5, 0.00056593126, -0.00025227605, -0.0004216496, -0.00038394664, 0.0005071538, 0.00027321087, -0.00062368694, -4.63778e-5, -7.964267e-5, -0.00019256468, 0.00021205949, 0.00017796735, -0.00022156961, -9.818285e-5, -0.0002598524, -0.00069995876, -1.4659093e-6, 0.00042110807, 0.0002922633, -4.0249895e-5, -0.00012549854, -0.00012370836, -0.00046212948, -0.000105191146, 0.00012132783, 0.0002908995, -0.00015851387, -0.00013174838, 0.00035686616, -0.00049919984, 4.1399882e-5, 0.00011465579, 9.326476e-5, -0.00016321753, -0.00011892831, 8.386291e-5, -0.00013041707, -0.0005633176, 0.00056138553, 8.915235e-5, 4.265709e-5, -0.00025495002, -0.00022549038, 9.316221e-5, -0.00029966186, 0.00012156526, 0.000112941634, 0.000121177785, -0.0003166244, -0.00014274954, 0.00043005266, 3.007166e-5, -0.00018986937, -2.690077e-5, -0.00046340935, 7.5220414e-5, -0.00010203407, 0.00061253895, -0.0003741861, -0.0005905411, 0.000602719, 0.00032904104, -0.00021920366, -0.0001872175, 0.00019364487, -9.948944e-5, 2.569489e-6, 2.0705631e-6, -0.00029857075, 0.00033940625, 0.00011124218, -0.0003990246, -0.00014390888, -0.0005015655, 6.304202e-5, 0.00053466106, 0.00032848204, 0.00034982985, -0.00028129996, -8.964894e-5, -0.00043982355, -4.0577437e-5, -0.00045240374, 0.00022039191, 0.00048120634, -0.00042467966, -0.00029413225, 0.0001042132, -0.00011268518, -9.528563e-5, -0.0004401613, 0.00011129383, -0.00033923917, 0.0006830156, 0.0002592626, -0.00045808216, 0.0002956235, -0.0006495885, 0.0004193268, 0.0005304744, 0.00021849315, 0.00031084506, -0.00045950353, -0.00010749034, 0.00071978173, -0.00021350976, 0.000113960064, 3.3566896e-5, -0.00024144827, -0.00031504163, 0.00021103957, -2.0462721e-5, -5.7109573e-5, 0.00010977194, 0.00013021292, 6.1812716e-5, -0.0001319715, -0.00025659235, 0.00012218195, -5.3584794e-5, -0.00019371064, -0.00026855277, -0.000120570534, -7.349809e-5, 0.00024720584, -0.00014460621, -0.00011390376, -0.00036904583, 0.00014107756, -0.00015781856, 0.00030873215, -4.6636735e-5, -0.0001007616, 1.06341995e-5, -0.00019891305, 0.00068522606, -0.00017418625, 0.00083436666, 3.0496032e-5, -0.00019842663, 0.0008312833, 1.10588e-5, 0.000108782646, 2.3367296e-5, 0.00014540687, -0.0006452018, 8.796735e-5, 0.00017961295, 7.892141e-7, 0.0005085266, 1.6125792e-5, -9.5218355e-5, 0.0002487591, -0.00033176763, 0.0003098818, -0.00035419024, 0.000111973975, -0.00033036445, -0.00012897291, -0.00029783344, -0.0005266331, -3.401005e-5, 0.00028753976, 0.00048060066, -0.00011972205, 0.0001292677, -7.386717e-5, -0.00027702123, 0.00010165119, 0.00015014896, 0.00016867825, -0.00041524338, -0.00059279933, 0.000120081, 3.14291e-5, 0.00019658379, 0.00019248323, -0.00032704693, -0.00017609388, -4.1647945e-5, 0.00053746154, -0.00011138215, 0.0001712087, 0.00089137943, -3.7116348e-5, -0.00046320402, -4.897197e-5, 0.00032247519, 9.476325e-5, -0.000119306016, -0.00040346026, 0.00043841262, 0.00048005884, -0.00033634837, 0.0006161318, 0.00043580568, -9.4261064e-5, 0.00053234166, -0.0001241888, 0.00038294063, 5.548929e-5, -0.0010099314, -8.455782e-6, -2.0653223e-7, 0.00030069775, -4.045287e-5, 7.041134e-5, 3.3393524e-5, 0.00018711288, -5.5469543e-5, -0.00013205656, -1.1260291e-5, 0.0001517694, 9.80477e-5, -0.00026731653, 0.0001477674, 0.00015308085, -0.00016696335, 0.0001128322, -0.0003066256, -0.00029530202, 5.015183e-5, -0.0001057204, -0.0005317729, -0.0003481726, -0.0004197176, -0.00011031303, -0.00028796066, -0.00017784518, 0.0003404098, 1.0975961e-5, -1.09457405e-5, 2.1013582e-5, -0.00037901683, -0.00021589242, -0.0007113073, -0.0004016573, 0.00021970467, 0.0004564911, 0.0006700478, 0.00033581434, -0.0010886624, -5.6411856e-5, 0.0001305076, 0.00052098645, 0.00030506664, 0.00057408976, -0.00043261825, -0.00017031659, 0.0010626825, -0.00043888862, 0.00030123678, -0.00057888776, 9.583989e-5, 0.00010480668, 0.00040063242, -0.00020828097, -0.00012197465, 0.00029230196, -0.0007546, -1.0711373e-5, -0.00020331495, 0.00028679802, 0.00011212264, -0.00055579975, 0.00013730126, -0.00031356784, -0.00022346107, 3.0996835e-5, 0.00042744295, -0.000109902845, 0.00040074904, 4.9414797e-5, -0.00032950623, -0.00016494126, 0.0002161299, -0.00017812493, 0.00019601439, -0.000426364, -0.00023349591, 3.5940342e-5, 0.00024836685, -7.870289e-5, 6.6058856e-5, -0.00051862426, 0.00025571208, -0.00019599234, -0.00049537024, -0.00016323797, 0.00011147091, 0.0005068035, 0.0003872463, -1.3595084e-5, -5.1412353e-5, -0.0005662406, -8.434619e-5, 0.00022763434, -0.00025616627, 0.00062663417, -0.00014022342, -0.00021707632, 0.00018792543, -0.000129003, 0.0004583355, 9.7987046e-5, 0.00027605373, 0.0004033045, 9.102221e-5, 0.00030177322, 0.0003664557, 3.0779433e-5, 6.999454e-5, -0.0003315254, -0.00016087192, -0.000101123485, 6.826835e-5, -0.00071476906, -0.00038245114, 0.00016522076, -6.8943526e-5, -7.698872e-5, -0.000111463865, -0.00026076907, 0.00015555245, -0.0002613262, 2.3636438e-5, 7.91903e-6, 0.0003539653, 0.00028651956, 0.00027827927, 0.00013797668, -0.0004928603, 0.00024799065, -0.00023285, -6.2189516e-5, 0.00023558212, 0.00013815616, -0.0005933383, 0.00033394294, -0.00016224649, 2.412027e-5, -0.00012112899, -0.00026064424, -1.9467621e-5, -0.00013537925, -0.00029810035, -0.00025626898, 0.00012887237, -0.00025062865, -0.00018346499, -0.000277659, 0.00039594652, 0.00011805669, -8.51517e-5, 0.00019046845, 0.00053447747, 0.00044468156, -0.000201499, -0.00045819452, -0.00020579979, 0.00033434416, -0.00017057023, 0.00032747994, -0.00036864364, -0.000114151524, 4.7366153e-5, 0.00070237735, 2.9522585e-5, -0.00060744234, -3.472335e-5, 4.957612e-5, -5.6379486e-5, 0.00033005414, -0.00077073334, 0.00037929078, 2.6835954e-5, 0.00022209351, 0.0003397832, 6.910284e-5, 6.722783e-5, 0.0005635497, -9.3783e-5, 0.0003900078, -0.00042202018, 6.0975595e-5, -6.342743e-5, 0.0002186048, -1.7115656e-6, 4.5992074e-5, 0.00024696597, -0.00017440315, 0.00027174343, 0.00056182645, 0.00040016443, 6.2917185e-5, 0.000302419, 0.0002625748, 0.00030797132, 0.0005048739, 0.00010821249, 7.9795e-5, -0.00030286188, -0.00038755368, -0.00013138268, -0.00021805428, 5.4515942e-5, 4.9495643e-6, -0.0003705615, -0.0002281826, 5.1327264e-5, -0.00013593333, -0.00011513799, -0.0001234419, -2.3352482e-6, -7.9195175e-5, 0.0001545964, 0.00031127394, 0.00017361998, 0.00020494689, 0.00044049678, -1.941829e-5, -0.00019876329, -0.0005142262, -0.00022267751, -0.000100621444, -0.00014580203, -0.0006275792, 9.918307e-5, 0.00037117832, -0.00049020106, -0.00021936055, 0.00016232081, -0.00024276704, -0.000112860835, -0.0002012644, 0.00031748557, -0.0003536226, 0.0003285296, -0.00014049314, 8.272517e-5, -0.00040830066, -0.0005483116, 9.9063036e-5, -4.2883785e-5, -7.611712e-5, -0.0002559491, -0.00054431765, -0.00046457082, 0.00077138346, 3.3782304e-5, -0.00023667449, -0.00046492973, 0.00032975347, -0.0003192679, -0.00019732583, 0.0006306348, -0.00040946665, -7.965845e-5, -4.095763e-5, -0.0001716703, -0.0005764494, 5.4674278e-5, 0.00021398008, 0.00024863475, 0.0005893651, -0.00038081923, 6.417247e-6, 0.00015665899, 0.00039142635, -0.000117134034, 0.00015625074, 0.00011906203, -0.0003825135, -0.0003755627, 0.000121495556, -0.00015861502, 0.0003123014, -0.00013780544, -7.756527e-5, -0.00025340647, -0.00015621539, 0.0001964055, 0.0001145665, -0.00041563163, -0.00014351013, 0.00012558447, 0.00010805082, -0.00041708373, 0.00034022977, 0.0002153727, -0.0003536062, 2.4206882e-5, 0.00021050824, 0.00014343568, -9.178742e-5, 0.00011700682, 4.9341492e-5, -0.00023440427, 0.00019866477, 3.4500397e-5, -0.0002672698, -0.00021545314, 0.0002655615, 2.8894829e-7, 0.0003521209, -0.0001892697, -0.00033287518, -7.0036e-5, 7.875106e-5, -0.00035604925, 0.00012735226, -0.00044639682, -0.00013868335, -0.0002479662, 0.0003350077, 0.00035139848, -5.1660187e-5, 0.0001264878, 0.00021905956, 0.00041994744, -0.00033806553, 0.00028223, 4.8185493e-6, 0.00033660766, -5.2167394e-5, 0.00014255365, 0.00012346037, -0.00046676345, 9.8731805e-5, -0.00013097042, 0.00091340585, 0.0008868388, 0.00037985417, 0.0002450181, -0.0003077277, 8.173041e-5, -2.5115338e-5, -1.9022951e-5, -0.00030274325, 5.2359832e-5, -0.00025044518, -0.00044741985, -0.00022679051, -0.00028879757, 0.00040876918, -0.00015530673, 0.00017297045, -0.000118298216, 0.0002982304, 0.00046500488, -3.6125726e-5, 0.0001367204, 2.9037832e-5, 0.00061637996, -3.7545717e-5, 0.0008507049, -6.3871674e-5, -0.00062447065, -0.00015784062, -0.00014625095, 9.849718e-5, -0.00014212457, 0.00030220722, 0.00022859158, -0.00018972963, -0.00048046306, 0.0003751276, -0.00017957034, -0.0004834983, -6.702994e-5, -0.00056141283, 0.0001940859, -0.0003424447, -0.000223138, 0.00010202753, -0.00037115254, -0.00027928845, -0.00012010474, 0.00044670753, 0.00013702274, -0.00041542714, 0.00026531424, 0.00052586943, 6.937156e-5, 0.0006064244, -0.00047787622, 0.0001733758, 0.00027278802, -4.4967655e-5, 0.00025376078, -0.00041515625, 0.00024419287, -0.0004625556, -9.275008e-5, -1.2219986e-5, -0.0005135723, -0.0003164112, 0.00015520219, -9.485533e-5, -8.240528e-5, 0.00014736662, 0.0006668514, 0.00046976772, 0.00048624107, 2.9915487e-5, -2.2230915e-5, 0.00028786677, -0.0002986332, 0.00015125163, 3.9329032e-5, 0.00065128814, -4.1206047e-5, 0.0001252443, -5.0912204e-5, 0.00050623564, -0.00032111694, 0.00010890685, -0.000120475815, 8.6578075e-5, 0.00040480116, -0.00019794375, -9.6391654e-5, -0.00036627892, 0.00018812901, 0.00011252381, -6.787731e-5, 6.598912e-5, 0.00024418157, -0.0002668988, -9.805131e-6, -2.2273489e-5, -8.464757e-5, -4.173434e-5, 0.0002869333, 4.1894273e-6, 7.6403776e-5, 9.392268e-5, -0.00019539485, 3.1538406e-5, 0.0002930182, -0.00022731163, -0.00023824954, 5.3212752e-5, 0.00036460315, 0.00038427714, 8.2487735e-5, -0.00037325147, 0.00040680924, 0.00018174897, 0.00068879384, -0.00010152137, -0.00010205711, 1.0240448e-6, 0.00029646672, -2.8369019e-5, -0.00010425483, -0.00055554195, 0.00015793192, -0.00013069168, 0.0001234998, -7.3808296e-5, 7.870401e-6, -0.000442206, -0.0005498006, 0.00020175146, 0.0002118624, -0.00047791871, -0.0002776624, 0.00036847734, 1.7121407e-6, 0.0002442949, 0.0003431412, 0.00036865368, 0.00017197114, -0.00029732374, -0.00012210837, -0.00035654378, 1.4235651e-5, 0.00017971249, 0.00016192516, -0.00022415933, -0.00011238094, 6.187717e-5, -4.3284275e-5, -2.1700449e-5, -0.00021730961, 1.7549553e-5, -0.0001915612, 7.214063e-5, -0.00031522612, -0.00052781054, -0.00017452118, -0.00022527188, -0.00014111698, 7.352545e-5, -0.00016287273, -0.00038565858, -1.842966e-5, 0.00024391557, 6.851663e-5, 0.00042888554, 3.19873e-5, -0.00015782994, -0.0002134559, -0.00032793122, 0.00016064843, -0.00012705616, -3.0241428e-5, -0.00048583676, -3.499719e-5, 6.3690145e-6, 4.340005e-6, 0.00025481402, -0.00037775544, -5.4016473e-5, 0.00010933089, 0.00044478697, 0.00027186828, 0.0005129702, 0.00018346094, 2.1973718e-5, 0.00014029066, -0.00040723366, -2.3361423e-5, 0.00029572356, 2.4195479e-5, -0.00016000187, 2.4252795e-5, 0.000557233, 0.00014705458, -0.0003714162, 0.00012607583, -7.3296455e-6, -9.1916154e-5, -7.649934e-5, 3.7049136e-5, 1.832735e-5, -0.0001068473, 0.00047186975, -1.8538673e-5, 0.00018197333, -0.000357577, 6.370896e-5, 0.0005057158, -0.00016663494, -0.0003489832, 5.080436e-5, -0.00034234105, -0.00024825067, -0.00041846343, -0.00026382608, -0.00017316341, 0.0002630406, 2.2743328e-5, -0.00022705653, 0.00036197124, 9.4564486e-5, 0.000305164, 0.00022516215, -0.00027385438, 0.00020559656, -0.0004225001, 0.00012977056, 0.00010781863, -2.1804555e-5, 0.0002819122, 3.326976e-5, -0.00011567199, -0.00039675186, -0.00028238186, 0.00056589686, -0.00016227411, -0.00011440996, 0.0003986724, -0.00042008937, 0.00020650166, -0.0004943943, -0.00055575714, 0.00028626647, -5.4829314e-5, -0.00024887366, 0.00069830916, -8.3079954e-5, -0.000787536, -5.456299e-5, 0.00041169318, -0.00053972733, -0.00019057396, -0.0002929408, -0.00039651996, -0.00031476628, 0.0002444628, 0.00013202906, 0.0005601243, -0.00013612272, 7.7021345e-5, 0.00031773953, -0.00012401168, -3.7246973e-5, -0.00065726053, -0.0001020943, -0.0003940727, -0.00067036133, -0.00023234265, 0.00060928136, 0.0002720303, 0.00022171119, 0.00020083576, -3.8061804e-5, 0.000106461535, 0.00024025555, -0.00018350221, 0.00017899282, -0.00016515916, 0.0002033785, -0.00040957346, 0.00012992941, -0.00066301145, 4.1627532e-5, 5.6058245e-5, 0.00022838706, 0.0003089999, 2.0657848e-5, -0.0003685198, -3.8351245e-5, -0.0003865976, -0.0003697068, -0.00016938614, -0.00013212654, -0.00033918512, -0.00010519798, -0.000495037, 0.0002477366, 0.00046491428, 8.08225e-6, -0.0005033265, -0.00024716396, 0.00022091434, 0.00034270802, -0.00026545077, -0.0002364271, 2.628726e-5, 0.00028089643, 0.0004366096, 9.079936e-5, -0.00012838421, -0.0003383812, -0.0005262815, 0.00018657456, 0.00036333865, 7.490059e-5, -9.519549e-5, 0.0004993873, 0.0005082771, -0.00043938833, 0.000232445, -0.0003404877, 0.00037344615, 0.00024092625, 0.0006586545, -7.7671204e-5, 9.7306955e-5, -0.00011432428, 0.00040827558, -0.00028735303, 0.00012492883, 0.00032427176, -0.00018414007, -0.00018746205, 0.0009950426, -0.00059428473, 0.00042703492, 6.472154e-5, 0.00059924636, -0.00023595357, 4.7587346e-5, -0.0002181341, -0.00038777315, 0.00036185017, -7.3862175e-5, 0.00068437675, 0.0001220784, -0.0003016783, 0.0005069343, 0.00016318691, -0.00016594454, 0.0001363316, -0.00035918553, 0.00015413103, 0.00044377902, -0.00016862589, -0.00016417482, -0.00014934235, -0.00023347007, 0.00041241266, -0.00035721954, -0.00022093226, 0.00046594645, 0.00045305653, -0.00018293143, 0.0008675356, 0.00038476076, -5.6194207e-5, 0.0006070431, -1.1279872e-5, 2.34659e-5, -0.00024882343, 0.00016560074, 0.00027876324, -2.7878953e-6, -0.00039490117, 3.585867e-5, -0.0004362682, 0.00011774175, -0.00017013893, 0.00039268416, -0.00017671037, 3.5495523e-6, 0.00017680596, 3.331462e-5, 0.00042746376, -5.6022727e-5, 5.0661467e-5, -0.00014406182, 0.0004123943, 0.00019345725, 8.9126996e-5, 0.00012522253, -1.2372769e-5, -0.00028964508, -0.00013369761, -7.178892e-5, 0.00020949601, 0.00035669477, 0.0004690238, -0.0002106172, -0.0002491472, -0.00023207473, -0.00022475512, -8.1837454e-5, -0.0001291723, -0.00023450183, -0.00012916319, 0.00019183867, 0.00011120776, -0.0003274184, -5.984623e-5, -8.789555e-5, 0.00048230906, -0.00014366723, 0.0006369383, 0.0003645202, -0.00015963595, -0.00045737025, -6.47842e-5, -0.00036894434, 0.00051017385, 0.00023119447, 0.00011200539, 5.609987e-5, 4.2189844e-5, -0.00018377841, 0.00018586598, -2.1803284e-5, -0.0001253651, 0.00013966192, -2.5661438e-6, -4.4730655e-6, 9.96099e-5, -0.0002699961, -0.00013370524, -0.00015816564, 0.0002212357, 2.4335188e-5, 0.00055776356, 0.00013398587, 0.00021639669, 0.00041499053, 0.00042004077, -9.417194e-5, -0.00024952748, -0.00030692428, 0.00046182357, 0.00020734995, -6.0203623e-5, 0.00047039168, -0.00025680495, 0.00041136658, -0.00031568707, -4.09611e-5, 0.00019200807, -6.0934213e-5, 0.000121310826, 0.00011498337, 0.0003440884, 6.716093e-5, -4.754354e-5, -0.00020454926, 0.00012739393, 0.0002164364, 1.9016994e-5, 0.00043334512, -4.419643e-5, 0.00070159056, 0.00013368325, -0.00016788338, -8.1114734e-7, 0.00045628232, -0.00036779704, 0.00032821984, -0.00012681399, -3.7549427e-5, -0.00021359276, 0.0005983094, -0.00016294514, -0.000120366094, 1.0720309e-5, 5.8110407e-5, -0.00029961937, -0.00024565202, -0.00018297738, -0.00029939448, -6.203178e-5, -0.00014896446, 0.00012301783, 1.0867902e-6, -0.0005003122, -0.0005153869, 0.00046015487, 0.000236685, -0.00037121674, 0.0003723388, 0.00016494784, -9.079944e-5, 0.00023122327, -0.00024485975, 0.00014241789, -0.0007829948, -0.00010878421, -0.00041457935, -0.00018940665, 0.00055390596, 0.00012785943, -1.51492295e-5, -0.00070882536, -0.0002785299, 0.0005599145, -0.00020750565, -0.0004422689, 0.00033899385, -0.00050811365, 0.00031401622, -0.00010214754, 0.00039781965, 0.0003312112, 0.00011357433, -0.000104309394, -0.00021418782, 0.00028423496, -7.349498e-5, -0.00090435334, 8.749456e-5, 5.20135e-5, -0.0004888676, -5.3388132e-5, 0.00032749638, 0.00016433685, 0.00035963522, 0.00026634202, -0.00022490972, -6.8707135e-7, -0.00034875516, -6.5062224e-5, -0.00035916473, -0.0005744961, 0.00019651624, -4.0063e-5, 0.00034237356, 0.00023945089, 0.00033618318, -0.00014344307, -0.00030743802, 0.00018346692, 0.00039661222, -8.282636e-5, 9.829711e-5, -0.000112926224, 0.00039549553, 0.000118677206, 0.00042468842, 8.451457e-5, -2.1324764e-5, -0.00015117052, -0.00017951212, -0.00070576137, -0.00010272807, -0.00058509945, 0.0006819836, 0.00010136952, 0.00013119714, -0.00022474621, -0.00021338982, -0.0004466094, -0.0005041764, -9.8275144e-5, 0.0001448918, 0.00018280213, -0.00032522448, -0.00011144436, 0.00037079817, -0.00045794935, -8.090502e-5, -0.0001981852, 8.660806e-5, -0.00011815295, 0.0002761794, 0.0005666329, -0.00018663895, 0.00015794272, 7.1852206e-5, 7.971137e-5, 0.00045981753, 0.00024375544, 0.00060694135, 0.00013161724, 0.00029931584, 0.00031983465, 0.00028848645, -0.0001762953, -0.00018461113, -0.0005594354, 0.00031915464, -0.0001015097, -0.00029862128, -0.00050269207, 0.00017899081, -0.0003680869, 0.00021281796, -0.00035525, -0.0002914431, 0.0002205036, 0.00041811302, -0.00030004678, 0.00021608993, 0.00031866017, 3.963548e-5, 7.4579955e-5, 4.3816385e-6, 0.00021006109, -0.00019980698, 0.000247267, 0.00015891269, -4.7019894e-5, -0.00047341426, -8.096684e-5, 4.4126875e-5, 4.240205e-6, 0.00034490656, -0.00017065299, 0.00021993024, 0.00022117297, -0.00032071618, 7.61208e-5, -5.8749516e-5, 0.0001413362, -0.000491744, -0.00016558752, -0.000458429, 0.00029661114, -0.00029537154, 0.00045979733, -3.775562e-5, 0.000109678585, -8.8545276e-5, -0.00041438724, -0.00062243786, -0.00025258682, -0.0004978088, -9.042415e-5, 0.00014422981, -0.00032616034, -0.00039228058, 5.9291695e-5, -4.7254605e-5, -0.00030138638, 0.00041681484, -0.00028486364, 0.0005352392, -0.00025002935, 6.853053e-5, -0.00028641438, 0.00076775433, -0.00016614041, -0.00038237314, -0.00025597462, 6.8352376e-5, 0.00014181911, 0.00029429415, 0.0004412888, 0.0003362072, 0.00074504846, -0.00021437765, 0.0005269057, 0.0005037673, -6.524795e-5, -0.0004299402, 7.6485274e-5, 0.0005954225, -0.00017380006, 0.00040419327, 4.6177014e-5, -0.000110910354, 0.00019841002, 0.00027493946, -0.00020484583, 7.936394e-5, -3.6549165e-5, 2.5115634e-5, 0.00016647328, -0.00043329882, 0.0001623708, 0.00013469429, 0.00018643485, 0.00024019352, 3.6231046e-5, 0.00017930314, 0.00060066173, 0.00024366056, 6.29144e-5, -0.00019500563, -0.0003276024, -0.00021680609, -0.00044971865, 6.310459e-5, -7.699615e-5, 9.202876e-5, 0.00049935334, 0.0005945301, -0.0003300869, -0.00038112843, -0.0006160045, -0.00011098401, 0.00054736016, -2.9427278e-5, 0.00042381693, 0.00015223003, -0.00024233684, 0.00018969298, -0.0005636003, 0.00013906055, 0.0003505307, -0.0007872446, -0.00047724196, -0.00036722003, -0.0001989476, -0.0002222557, 0.0002953189, 0.00035796472, 0.0007183491, 0.00048670138, -1.5454512e-5, -0.0001804553, 0.00015114289, 0.000117953845, -2.3885155e-5, 0.0001390984, 0.0005031542, 0.0005728579, 0.00037810823, -3.637553e-5, -0.0003727469, 0.00017251736, 3.863057e-5, 0.00048649398, -0.00032222862, 0.00020040656, 0.00015362586, -0.0005680473, -0.0004839533, -0.00027524013, 0.00020119299, 4.1209255e-6, -0.00043655164, -7.298048e-5, -0.00016811467, 1.999957e-5, 0.00013322168, -0.00023783784, -4.961459e-5, 0.00011328332, -0.00024297115, 8.098078e-5, -0.0003938499, -0.0001005836, 0.00058447325, 0.0007081255, 0.00010706671, 0.00019030555, 4.498138e-5, -0.00053348974, 8.3073486e-5, -0.00016052407, 4.9660226e-5, -0.00025190582, -0.00030221185, -0.00021501922, -0.00026734444, 0.00012272768, 0.0009902177, 0.0005219159, -0.00040687554, 4.502417e-5, 0.00014594519, -0.00027393314, -0.00023508028, 0.00017804754, 0.00032797595, -0.000614353, -2.990662e-6, 0.00041415423, 8.636901e-5, -0.00014425429, 0.00063613494, -7.36937e-5, 0.00043914132, 7.768413e-5, 2.9433935e-5, -0.00015067542, 2.5655701e-5, -7.150537e-5, -0.0004367542, -0.00022468652, 0.0004758105, 1.0617719e-5, 5.2742274e-5, 0.00011352922, 0.0001468738, -0.00034624, 0.00038438276, -0.00016362437, 0.00041278056, 0.00024622117, 0.00017974047, 0.0002869051, -0.00031722605, -0.00023607271, -0.00050590525, 0.00047747864, 5.4410975e-5, -6.9271104e-5, 0.0004435057, 0.00049974583, -0.00012229379, -9.038977e-5, -0.00031467262, 8.792338e-5, -9.758015e-5, 0.00023768356, -5.6761488e-5, 3.6304133e-5, 0.00039081994, -0.0003952893, -0.00061462243, 0.00035667044, 3.7984628e-5, -8.254566e-6, 0.00020805362, 5.8897996e-5, 0.00015658933, -0.00019050219, -0.00033903087, -0.00048438297, -0.00019354856, 0.00058759766, 1.2435844e-6, -0.00027782284, 8.709115e-6, 0.00033655777, 0.0006606282, 0.00032962626, 0.00030212468, -0.00066614023, 5.910772e-5, 0.00029895687, 0.00035361416, 0.00033380385, 5.2278874e-6, -0.0001084824, 0.00043131836, -0.00013562532, -0.0001265611, -5.3637694e-5, -0.00015557185, 0.00023316624, 0.00048206295, -0.0004641491, -0.00046748668, 0.0001822294, 0.00011516832, -8.342517e-5, -0.0003009191, 7.286466e-5, -0.00059293566, -0.00014839851, 0.00035034204, -0.00022019503, -4.5259527e-5, 0.00035814685, -2.2030954e-5, -0.00016430598, 9.007659e-5, -0.0002337228, -0.00017435123, -0.0002767293, -0.00023382527, -0.00016827756, -0.00015171197, 0.0002514432, -1.9610658e-5, 0.00010632096, -0.00021193895, -6.209873e-5, -0.00046418476, -1.6260903e-5, 0.0005113439, 7.7762015e-6, -0.000247121, 0.00021795959, 0.00029357552, 0.00014519035, -1.4614509e-5, 0.0004010472, -0.00060555385, -0.00016286684, 0.00048196843, 0.00016546021, -0.00036426436, 0.00014776377, 0.0002177785, -3.086966e-5, 0.00012918522, 0.00052871834, 0.000599226, -0.0005326058, -2.2723472e-5, 0.00024556517, 0.00017706584, -3.60968e-5, -0.00019913947, 1.5984951e-5, 0.00022610778, -6.967923e-5, -0.0004507122, -0.00026926128, 1.9272675e-5, 0.00016159035, 0.0002156023, -0.00017483329, 0.000583193, -0.00030228702, -0.00010311996, -7.770606e-5, -0.00018264327, -0.00023761063, 0.00017577698, 5.4789554e-5, -6.735248e-5, -0.0004712024, 0.00016662304, -3.5975267e-5, -0.00045108644, -0.00034790157, 0.00048264785, 5.26618e-5, -0.00047189725, -0.00018587601, -0.00030043474, -4.0282815e-5, -0.00024281263, -0.00026610354, -0.0006653884, -0.00010766459, 0.00035692935, 0.0005303864, -4.8681413e-5, 0.00025632128, 9.2907205e-5, 4.586294e-5, -1.7368659e-5, -0.0003093413, -0.00038953152, -0.00010348916, -0.00055135036, -0.0001634013, 0.00044721176, 0.0005427873, -0.00021842422, 0.0001896069, -1.9844265e-5, 0.00011516498, 8.275628e-5, -5.307771e-5, -2.8691025e-5, 1.3203207e-5, -2.6683401e-5, 3.278939e-6, -0.00011178914, 0.00021731138, 0.00015828485, -0.0002160035, -4.664637e-5, -6.3067746e-5, -6.906184e-5, 6.6544184e-5, 0.00044339956, 0.0006964663, 4.3390417e-5, -0.00019016, 0.00018235028, -0.00013937958, 0.00013246943, -5.0196047e-7, -0.0004358845, 0.00018958551, -0.00067180046, -0.00038744722, -6.846064e-5, -0.00015484351, 0.00033843232, -0.000359404, -0.0004239392, -0.00020984525, -1.981917e-5, 0.00032017508, 9.7512704e-5, -0.00043934805, -0.00013643608, -3.0987525e-5, 0.0007228085, 6.8466514e-5, 0.00013387192, 1.9506522e-5, 0.00046695588, 2.5129426e-5, 0.0008530123, -1.3188458e-5, 4.9906157e-5, -0.00014953419, -0.00054976763, 0.00037665165, -0.0001680529, 0.00022400642, 9.4733296e-5, 7.002489e-5, 0.00068464613, 0.00019084259, 0.0002053939, -0.00021298262, 0.00029030716, 0.00037861543, 0.00016473833, -0.0005294062, 5.6107125e-5, 0.00036530613, -7.793954e-5, -0.00049963925, -0.00030775156, 0.00047889922, -0.00023463555, -0.00046245402, -0.00016590122, 8.266413e-5, 0.00044189038, -0.00022219351, 0.00028590116, -0.00033480537, 5.334424e-5, 0.0003987051, 0.00014187503, -0.00027221153, 0.00025830086, 0.00023805595, 2.7349512e-5, -2.068416e-5, 0.00035291616, -0.00016465523, -0.00029663488, 0.0002987752, -3.7926846e-5, -0.0002690701, 7.124061e-5, 0.00016750798, -0.00074609794, 0.00039677782, 2.674777e-5, -0.00017419166, 0.0003313341, -0.00012029059, 0.0007078578, -0.00040009586, 9.416537e-5, 0.00016002891, -0.00042106514, -5.3743795e-5, 0.00033408645, 0.00031340294, 0.0001116468, 2.6715785e-5, -5.9307138e-5, 0.000432438, -0.00084996014, 4.2912987e-5, -0.0007650951, -0.00053977355, -0.00011122606, -0.00046728202, 6.660176e-5, -0.00040467022, 0.0002602869, -4.4974026e-5, -2.9938126e-5, 0.00027429164, 5.718854e-5, 0.00024663008, 0.00025761884, 0.00010390292, 0.00040430255, -0.0006258131, 5.3756325e-5, 0.00014987084, -0.00016132033, 0.00031991155, -0.00024260074, 0.00021058877, -0.00012307784, 8.642812e-5, 2.4142528e-5, 0.00028676452, -0.00034811514, -0.00024204115, -0.0006023985, 0.00045600606, -0.00030569243, 0.00033203504, -2.4662979e-5, -0.00028385333, -1.5037591e-5, -0.00024845309, 0.00013757881, -8.9549634e-5, -0.0003295673, 0.0003604644, -0.0006993519, 1.8022844e-5, 0.0006175685, -1.8746501e-5, 0.00020834064, 3.76621e-5, -3.4763518e-5, -0.00012669714, -8.1191165e-6, 0.00023638834, 5.8146674e-5, 2.8328262e-5, 3.1880358e-5, 0.0006998418, -0.00051430124, -0.00025928265, -6.710775e-5, -0.0001325731, -0.00055195455, 7.254966e-7, -0.00034717246, 0.00030875698, 0.00030389527, -0.00058903306, -8.235302e-5, 0.00020447903, -0.0003830239, -1.1514646e-6, -0.00045484086, 0.00011717648, 0.00036555133, 0.00016918524, 1.0589675e-5, 4.600499e-5, 0.00012871603, 0.0004029298, -0.0003359495, 0.0006010681, -0.00030145637, 0.00055847166, -0.00027960687, 0.0002873123, -7.968469e-5, -6.7693625e-5, -0.0007775448, 0.0002596621, 7.168819e-5, 0.00028473593, -0.00014844845, -0.0001722934, 0.00062538387, 0.00018664863, -0.0004639484, -0.00017558924, 0.00013855998, 0.00024732095, 0.00017558574, 0.00053132646, -0.0005443248, 0.00013603331, -8.210515e-5, -0.00045196802, 0.00032002985, -0.00059101556, 0.0002738723, 0.00042190522, -0.00030336727, 0.0003587997, -0.0001534375, -0.00028377475, 0.00014820798, -0.000300193, -0.00018235804, -9.252959e-5, 6.408214e-5, 0.00011879614, 0.0002028866, 0.00026599783, -0.0004950275, 0.00058359123, -0.00028032175, 0.00034731982, 0.00041419532, -4.1616197e-5, 0.00046063412, -0.00020881859, 3.2956308e-5, -0.0005829251, 2.8665927e-5, -0.00018165079, -0.00018846743, 0.000119213255, -6.11934e-5, -0.00035816611, -8.2626655e-5, -3.7582944e-5, 0.0005853834, 1.1502481e-5, -0.00029088676, -0.0005540099, -0.00033285422, 0.00043318, -9.3133276e-5, 9.006143e-5, 5.420528e-5, 0.00014513705, 0.0004998213, 0.00014166387, -0.0004915312, -0.00013021674, 6.522946e-5, 0.00026671882, -2.4039828e-5, -0.000118080614, 6.013294e-5, 0.00028334066, -0.00040114534, -0.00036077504, 0.00037821842, -7.316223e-5, 0.0001235753, -0.00033851675, -0.00048280015, 0.00078534614, 0.00014379926, 0.000101668746, 0.0005337198, 0.00017082023, -0.00014511896, 0.00028009698, 0.00023321463, 8.2409926e-5, 0.0003530311, 0.00048615976, 7.519659e-5, -0.00031527693, -0.000623298, 0.00020897904, 7.359324e-5, -0.0002225725, 1.8882214e-5, 0.0006233293, -0.00034589373, 0.00045164212, 0.00025591123, 0.00039059608, 2.4289997e-5, -0.00031717998, -0.00030833928, 0.0002132014, -0.00012508404, -0.00039716397, -2.8529734e-5, 9.4460906e-5, 0.00019800241, 0.00017986693, -0.000111745176, 8.921e-5, -0.0010347306, 0.00023939913, -0.00019592028, 0.00046155165, -0.00015078673, 0.00039107527, -0.00025168224, 0.000117777556, -0.0004993018, 0.00024370963, 0.0003342627, -1.8837605e-5, 0.00066493737, -0.00014426812, -0.00017936488, -0.00013805735, 0.00023319699, -0.00011874953, 0.00034313847, 0.00038366404, 0.00079330587, -0.00015179461, 0.00030678714, -0.0004008851, 0.00039557906, -0.00015373174, 0.00014764878, 0.00030736937, -0.00015386724, 2.7159813e-5, -5.9008016e-5, -0.0003324005, -0.0004590945, 0.00026301967, 0.000373914, -0.00028895657, -0.0005909223, 0.00012355778, -0.00020878833, -1.00328725e-5, 0.00032091237, -0.00029075614, 0.0002967992, -1.3673238e-6, 0.00048785022, 0.00013886263, -0.00018190597, -0.000534131, 1.2092337e-5, 0.000663431, 9.025965e-5, 1.3139581e-5, 0.00027985586, -0.00011935205, -0.00058173644, 8.026624e-5, -0.00021235408, -0.0002384664, -4.625659e-5, -9.1848975e-5, 0.00046891943, 0.00044614493, 0.00069062243, -0.00036908235, -0.00019634828, 0.00041689936, -0.00029736717, 0.00013619316, 5.3935244e-5, 0.00011753814, 0.00034204093, 4.551604e-5, -3.39243e-5, 0.00030127086, 0.00047115446, 1.0930622e-5, 0.00012874824, -9.58067e-5, -0.00067914196, -0.00017143451, 3.3010965e-5, 0.00017386553, -0.00023953234, 0.00037986817, 8.9355526e-5, -0.00023139293, -0.0005196988, -0.0003291576, -0.00030056588, -5.3690314e-5, 0.0003605215, 0.0008027464, -7.5706525e-6, -0.00013234481, -0.00011280213, -0.00019211233, 0.0006240174, 0.00048594322, -0.0001560723, 0.00026409005, 0.00033024678, -0.0001845642, -0.000101005404, -2.1905093e-5, 0.00025159743, 0.00010811556, 0.00050958956, 0.000100391524, 0.00028084952, 7.5469325e-5, -0.00039396452, -3.9006045e-5, -0.00010541041, 0.00036264895, 0.00041640946, -1.1886676e-5, 0.00062580203, 0.00044544588, -0.00012528856, -0.00011215781, -0.00023939571, -0.0007792721, 8.85306e-5, 0.0006205225, 0.00019743225, -2.1639512e-7, 0.00015938119, 0.00018972527, -8.4156374e-5, -3.757717e-5, 0.00058565015, -0.0006306965, 3.3710257e-5, 0.00056062866, -1.7354819e-6, 2.5466208e-5, -0.0001482001, -2.0728627e-5, 8.0708814e-5, 3.3678807e-5, 0.00033172438, -0.0002765949, 0.00027986578, -5.202902e-5, -0.0004045776, 0.00010003982, 0.00017177143, -0.00039015422, 0.00032104683, 0.0002590043, 0.00012964933, -0.00048559756, -0.00021899656, 0.00034437998, 0.00032974858, -9.9003824e-5, 0.00034585464, 0.000101790625, 9.430467e-5, -0.00019765149, 0.00020118926, -3.2493488e-5, 0.00040611654, 1.940334e-5, 0.00037471738, 0.00040843018, -6.426928e-5, -0.00024415084, 0.00050807785, 7.091365e-5, 7.368652e-5, -0.00032652653, -0.00022717603, -5.674977e-5, -0.0005931677, -0.00014677888, -0.00019005427, -0.00012109727, 0.0001934926, 6.906634e-5, 6.7842757e-6, 0.0005917723, -0.00059576036, -4.8689715e-5, -6.556772e-5, -0.00012452206, 0.0001413634, 0.00017900865, 0.0009083289, 4.641753e-5, 0.00033777018, -1.5204223e-5, -7.5168304e-5, 0.0004862374, -2.8727181e-5, 0.0003738433, 0.00035801958, 1.5710793e-5, 0.00033067903, 0.00031537347, -0.00031220264, 0.00020449008, -0.00047524727, 7.4709315e-5, -0.00035448457, -0.0004223428, 0.00041163177, -0.00069730217, -0.0004817146, 0.00021347452, -0.00043702032, -6.1052706e-6, -0.00014696787, -0.00013225096, -0.000102554746, 0.0007491906, -0.00017324301, -0.00020510508, 0.000296481, -0.00017882069, 0.00032010427, 5.2976484e-6, 0.000652424, -5.3637534e-5, 0.0003560474, -0.0002850087, -9.727082e-6, 0.0003549213, -0.00029994978, 0.00013804325, 0.0003188526, -0.00018598104, -0.00025630626, -0.00019706374, 0.00043243277, 5.4708136e-5, 0.000499799, -0.00040668642, 0.000117560565, 0.00016580187, -6.223387e-5, -0.00073668564, -0.0002778886, 0.0003143695, 0.0005996818, -0.00037066976, 0.0001958903, 0.0008012023, -0.00026073627, -2.2819278e-5, -2.5294017e-5, 0.0010244298, 4.297322e-6, 0.00047912524, 0.0006483865, -0.00047064142, 0.00035744332, -0.00013074458, -0.0005397021, -0.00014831763, -0.00013698012, 0.00019418048, -0.00016795336, -0.0002996014, -0.0005943525, -6.7523695e-5, -3.9637947e-5, 0.00034265398, 0.00041961233, -9.0263195e-5, -0.0005241893, 8.728847e-5, -0.00010082017, -0.0002565908, -9.981234e-5, 0.00029356152, 0.0003486772, -4.6037538e-5, 0.00033439923, 2.5355566e-5, 0.00019902707, -0.00061018975, -0.00023551303, 6.859784e-5, 3.704149e-5, -0.00012018476, 0.0003428395, 6.314411e-5, 0.00029149564, 7.515598e-5, -9.923775e-5, 0.0003430017, -0.0001017047, -0.00032135472, 0.00051067304, 0.0004900218, -0.00041883, -0.0005653567, -0.00016345271, -1.3270336e-5, 0.0001911222, 0.00014186313, -0.00026843458, 0.0003148253, 0.00011060338, -0.00034941846, 0.00023326128, -0.00028917176, -0.00045615947, 6.827205e-5, -0.00037205653, 0.00030693537, 0.00034326108, 0.00014686194, 0.0001021262, -0.00030160876, 3.6713252e-6, 0.00019781876, 0.00012802605, 0.0002880999, -0.00029454188, 0.0005092931, 8.613996e-5, -0.00025558958, 0.00013439867, -0.00014206863, 0.0003485077, -3.5577764e-6, 0.00022595796, 0.00020466105, -0.00023110189, 0.00075752666, -3.498536e-5, -0.00056385435, 7.443583e-6, 0.0007578957, 3.762027e-5, 0.00019483326, 0.00024123726, 0.0004111486, -7.541435e-5, 0.0001390998, -0.0002621786, 0.00048930245, 0.00018026105, -4.3646564e-6, -9.351344e-5, -0.0003833867, 6.626259e-5, -0.0002822731, 9.725655e-5, -0.00014625909, 1.23459795e-5, -0.00020801251, 2.1302618e-5, 0.0002038892, 0.00026076735, 0.0001850355, -0.00048786646, -1.7152342e-5, 0.0002536761, 0.00012423552, 0.00013360089, -0.00025387376, -0.00028078473, 0.00012813794, -5.180237e-5, -0.00011411449, -0.00023004133, 2.992457e-5, -6.6624096e-5, -0.00017922053, -6.498617e-5, -0.00015143368, 0.00032501528, 0.00024930437, -0.00042455227, 1.1605315e-5, 0.0005531259, 0.00018748626, -0.00018670074, -0.00011399819, 0.00040277102, 3.1145626e-7, -9.543055e-5, -0.00017533572, -0.0003212881, -0.00061374716, -7.8572346e-5, -7.7580786e-5, 0.00027841466, -1.9061543e-5, 0.0002456645, -0.00026307386, -7.075106e-5, -0.00012854322, 0.00032367482, -0.00023520562, 3.3340562e-5, -8.2620565e-5, 0.00021481335, -0.0002452751, 0.00093615195, 2.3981305e-5, -6.047688e-5, 0.0003177909, -0.00022737164, -0.00024102547, 0.0002412143, 0.00014241223, -0.0001318523, -5.6868732e-5, 5.541049e-5, -6.010588e-5, -9.8813725e-6, 5.5300694e-5, -0.00028860357, 0.0004362882, -0.00032300618, -0.00010849592, 0.00017267287, -3.334923e-5, 0.00029990473, 0.00018821386, -0.00018295004, -0.00019953343, 1.962476e-5, -0.00028321682, -0.00013545912, 4.002279e-5, 0.00015708122, -0.00017284311, 0.00040837625, -0.00063473213, -0.00034936107, 6.6157445e-5, 0.00020851778, 0.00051630224, 0.0005335923, -0.0003615158, -0.00021775706, -0.00020930234, 0.00072114443, 9.069404e-5, 0.00010076214, -0.0001441128, 0.00011125405, 0.00033216036, 2.6598736e-5, 0.00020332976, -6.630069e-5, -7.061834e-5, -0.0004939316, -0.00012591912, 0.00017229051, 0.00064844236, 0.0001612171, -0.00027161525, 0.00026819372, -0.00047277668, -0.00022149281, 0.00014339818, -2.8839275e-5, -0.00019761978, -0.0005332155, 3.156901e-5, -0.00017693044, 0.00013389434, -0.00014174874, -7.308213e-5, -0.0003831497, -4.3029577e-5, -0.00011302512, 0.00011866776, -0.00053387106, 0.0003122928, 0.00022222058, 0.00027803183, -0.00014899849, 0.00026396662, 7.04773e-5, 0.00015464787, -0.00022273014, 0.00018413915, 0.00010048755, -0.00033850738, -2.521063e-5, 0.00020753095, -0.00059271103, -0.00040836766, -0.00018388359, -0.00027234966, -0.00039927673, 0.00084427046, 5.5214154e-5, 0.0006960114, -0.00041196874, 0.00021082709, 0.000506145, 0.00031694394, -0.00028445385, 8.327438e-5, -0.00031391357, -0.00042273293, -0.00027002295, 0.0008099025, 0.00029779275, -0.0002208475, -0.0007304293, 0.0001927844, -3.8985745e-5, -2.0560376e-5, -0.00012321651, -0.0003780113, 0.0003738766, -0.00011281999, 0.0003543893, -0.00017680439, 4.7623304e-5, -0.0007240276, 0.00083892304, 2.2994458e-5, 0.00064562034, 0.0005909154, -0.0002483033, 0.00050973025, -0.00012013187, -4.981285e-5, 1.4278185e-5, 0.0003803069, -0.00036778944, 0.00028852254, 9.8796314e-5, 0.00038034798, -7.9868005e-5, 2.0158827e-6, -0.00043940704, -0.0006572626, 0.0002983282, -0.00011893503, 0.00024334897, 0.00044051092, -1.4832038e-7, -0.00032856088, -0.00068263186, 0.00024597126, -0.00021589042, 5.1888877e-5, 0.00031584597, 0.0002874102, -0.0006383051, 0.00011536253, 0.00023409791, -0.0003243228, 0.0007447232, 0.00015762683, 0.00026225942, 0.00016471637, 0.00034837227, -0.00045982387, -0.00040954273, 0.00019919971, -0.00055294187, -3.578183e-5, -0.0003438725, -0.00029612685, 0.00012994955, -6.736686e-5, -0.0007562008, 0.00022870488, -0.00019688472, -0.00047080693, -0.00037646483, -9.114291e-5, 3.1605616e-6, -8.956532e-6, -0.00019354814, 6.818171e-5, -0.00023668792, -0.00015505037, 0.00014482156, -0.000293257, 6.1432525e-5, -0.00060405984, -0.00059540686, -0.0002184241, -0.00017373219, 0.00019494594, 0.00041437498, -0.0001721998, -0.00014486055, 0.00045134526, -0.00011036675, -0.00045712656, -6.492593e-5, -4.4392797e-5, -0.00016431027, 0.00022563573, -0.0003444341, 0.0005563263, 0.00015115165, -0.00010214124, 0.00049678836, 0.000110429035, -0.00019611487, 0.00027323657, 0.0002849919, 0.00012836272, 8.340817e-5, 0.00035016617, -0.00033022324, 0.00071757805, 0.00012238625, 1.2733436e-5, -2.715562e-6, -0.0003433455, 4.4012486e-5, 0.00043978624, -4.2920667e-5, -0.000487503, 0.00037421042, 0.0005062993, 0.00013132929, 0.00010938113, 0.00024869308, 0.00091854477, 9.324936e-5, 0.00065638, -0.0002505573, -0.00023407843, -7.391913e-5, -5.018726e-5, -0.0006081099, -0.00033108567, 1.1181203e-5, 0.00038070572, 0.00018031876, 0.00013463623, -2.8014802e-5, 8.647609e-5, -0.00043570533, -0.0006552989, 2.9883171e-5, -0.00052997895, 0.00031472897, 0.00013470532, 0.00035007935, 0.00015822174, -0.00035640819, -3.081342e-5, 0.00010298531, -0.0002981333, -0.00014937524, -0.00037994052, 0.00032683669, 0.00031936582, -0.00029270074, 9.9377176e-5, -0.0001364469, 0.00068865635, 0.0001572608, -0.0005704585, -0.00018551265, 2.9090181e-6, 4.9389106e-5, 0.00029114587, 0.0003227375, -0.00046484335, 4.9444574e-5, -1.2812415e-6, -2.6055072e-6, -0.00030600373, -9.604123e-5, 0.00014369811, -0.000107047934, 0.0004587794, 0.00031678146, 0.00024067037, 0.00020242522, -0.00060474226, 0.00038830034, -0.00018971667, 0.00019158576, -0.00013974134, -0.00052597304, 0.00054851774, 0.00017397518, 0.00014696004, 0.00024040641, -0.00012331938, 0.00029888458, 0.00044216568, -0.00022190396, -0.00018776297, 0.00030997588, 8.920019e-5, 0.00054218393, -0.0005538714, 3.0673896e-6, -0.00039244053, -0.00024698867, -0.00025457365, 0.0004207284, -0.00024400241, -3.9556e-5, 8.308789e-5, 8.474069e-5, -0.00018112035, 0.00061781553, -0.00024752726, 0.00011265143, -0.00012468664, 0.00023711177, 2.7273589e-5, 0.0001251343, 9.342178e-6, -0.0007856635, -0.00023330607, -0.0001199172, -0.00019880314, 0.0001642483, 9.90629e-5, 0.00061992905, 0.00010918853, -4.039366e-6, -8.738635e-5, -7.8360514e-5, -0.00043548393, 0.00012507128, 0.00047457108, 0.0001654529, -0.0003436058, -6.535617e-5, 0.0004020862, -0.00032884305, 0.000258674, 5.1120493e-5, -0.00010703425, 0.00019065871, 3.156034e-5, 8.364929e-5, -9.4136685e-6, -0.0005244578, 0.00012662938, 0.0003535498, 0.00012984149, 0.0002409684, 0.00021482648, -3.3403623e-5, 0.00026976803, -4.442579e-5, 0.00010829563, 5.822966e-5, -0.0006465889, 0.00032015203, -0.00031897915, -7.660676e-5, -0.00031692057, 2.2382777e-5, -0.00041428625, 0.0003443152, 7.37838e-5, 2.6105407e-5, -0.00018236617, -0.000198081, 0.00053935644, 0.00015754878, 0.0006783671, 0.00013124026, -0.00012422916, 0.00022272921, -0.00029744377, 0.00012986783, 0.0001057486, -0.00048568682, -8.5180385e-5, 0.00036080382, -0.00025906542, 0.0004251624, -3.2027536e-5, 0.00079201575, 0.00050815503, -0.00021775483, -8.643402e-5, 0.00014026999, -0.00020729481, -0.00028257916, 0.00020183243, 0.0005270217, 0.00042617487, -0.00010686987, -0.00021102953, 0.00014417253, -0.00043263173, 0.00023856961, 0.00039458126, -0.000114525974, -0.00035762746, -9.527465e-5, -4.1386234e-6, -0.00012839872, 0.00025953253, -0.0006708518, -0.00020829953, -0.00032248689, -6.4714535e-5, -0.00032979954, -0.00028688807, 0.0001734575, -0.00015251854, 7.125653e-5, 0.00026304758, -0.00013689933, 8.820267e-5, 4.4796874e-5, -0.00026554, -0.00036281522, 0.00044132277, 0.0002780589, -0.0001578712, -0.00014682832, -0.00018498335, 5.0379317e-6, -3.2020504e-5, -7.698853e-6, 0.00024575592, -3.90763e-5, -0.000107029606, -0.00030692754, -0.00039804878, 2.4522311e-5, -0.00044912443, 0.00038016142, -0.0005364377, -0.00023378491, -0.00032775584, -0.00021792202, 0.0006545836, 0.0003176512, 0.00014093243, -0.00018331631, 0.00015517372, 0.00033093247, 7.7000164e-5, 7.26568e-5, 0.00018936436, 0.00027526825, -0.00017667709, 0.0003296008, -0.00026443755, -0.0005069556, -2.8050334e-5, 0.00044526832, 0.00033367157, 0.0005385712, -0.000279827, 0.00042479986, -3.5195106e-5, -0.00022112072, -0.00015344174, -0.0006096583, 0.00027490957, 0.00012188468, -0.0005327155, 4.129389e-5, -0.00025593207, -0.00027405145, -0.00023364872, -1.9246801e-5, 4.37728e-5, 0.00027480125, -6.845135e-5, 0.00026103412, 0.0006349774, 9.704464e-5, 0.00042058498, 7.071127e-5, -0.00069499784, 0.00025087918, -0.00048282326, 0.00019054803, 0.00048295682, 0.00026294295, 0.00024779188, -0.0004271031, -8.046558e-5, 0.00048013715, 0.0003087846, -0.000118963326, -0.00016625803, -0.00043261063, 2.6229886e-6, 0.0008372301, 0.00017389876, 0.00024736102, -0.00054139755, 0.0001212836, -0.00035991523, 0.000512302, -0.00045909916, 0.00012542725, 4.6148692e-5, -2.2982545e-5, -0.0001643944, 3.286305e-5, 0.0002238959, 0.00028424966, -8.5432015e-7, -0.00037587667, -0.00044230503, 0.00024084025, 8.9392324e-7, 0.00023782712, -0.000107500535, -0.00083734177, -0.00019370677, 5.225588e-5, -0.00027863056, 0.00017150198, 0.0005197458, 0.00013974748, 8.6992695e-5, -0.00038529953, 0.00020691546, -0.0002751717, -0.00017557271, -0.0004044802, -0.00014787553, 0.0004918948, -0.00054703356, -0.00074354804, -0.0003501564, -5.6382723e-5, 2.8260931e-6, 0.00022186548, 7.6086384e-5, 0.00036661813, 2.9479977e-6, 0.00045581246, 0.00038969403, -0.00021549304, 0.00011686467, 0.00028723406, 0.00029238514, 0.00024306212, 0.00027395776, 1.4114664e-5, 0.0004646338, -0.00055162894, 0.00052061124, -0.00041896623, -0.00022301357, -0.0002597014, -2.417661e-5, 6.823309e-5, 0.00032449988, -7.678319e-5, 0.0003952817, -0.0001388456, -0.00017522284, 7.6757795e-5, 0.0003886133, -9.946895e-5, -0.00047573325, -0.00069113553, 0.00034375058, -0.00019593805, 8.880713e-5, -0.00023765847, 0.00019077821, 0.00015729839, 0.00010271746, 0.00035801, 0.00030403302, -0.000102368365, 0.00021157651, 3.1443127e-5, 0.00014816102, 0.00036897243, 0.0003001561, -0.0002831211, -0.00015843882, -8.844709e-5, -6.912064e-5, 4.558682e-5, -3.9813636e-5, 0.00055614783, 0.00012051227, 0.0002046873, 0.00023841539, -5.9589423e-5, 8.3088744e-5, 0.0002914666, -0.0004892204, -0.0004320401, -0.00054824667, -0.00053800567, 0.00013655392, 0.00022188798, 3.4782417e-5, 0.00017834386, -0.00015891524, -7.025524e-6, 0.0003094328, 0.00047490638, 5.2747244e-5, 0.000412562, -7.0839575e-5, -0.00022065543, 1.7479373e-5, -0.00014749383, 0.0002452937, 4.689029e-5, -2.5713782e-5, 0.0003763289, 2.1075879e-5, -0.0003721466, 0.00021602225, -2.0936337e-5, 0.00014085084, -0.000199194, 0.0002947958, 0.00031581268, -0.00026223727, -0.00010609528, 0.00040384274, -9.7694756e-5, -0.00065183325, -0.00019664499, 0.00039472996, -0.00043403154, -0.0004836525, -0.00012399643, -0.00028917365, -0.00023063082, -0.00046662896, -0.00012967845, 0.0011003086, 0.0003478516, 0.00016738824, -3.2510517e-5, -3.6512305e-5, 0.00012526018, -4.7205023e-5, -0.00024244006, -8.382343e-5, 0.00020725944, -0.00021283046, -0.00024179748, -0.000363607, -0.00023893965, -0.00037402174, -0.00022390003, 0.0005796822, -0.00020501792, 0.00018335588, -3.0017516e-6, 7.2747425e-5, -8.917133e-5, 0.00039449605, -0.00037208147, -2.209892e-5, 0.00010772157, 0.00013953492, 0.00028746435, 0.0003132298, 6.673269e-5, 0.00031896762, -0.00046463244, 0.00012703295, -5.08916e-5, 0.00029714845, 0.00050906563, -8.78885e-5, -0.00023141336, 0.00018171473, 0.0007419391, 7.487208e-5, -0.00043423547, -0.00014707667, 2.9959268e-5, 0.00020827462, -0.00024473024, -0.00015212987, -7.727026e-5, -9.824892e-7, -1.4830301e-5, -0.00039109605, 0.0002183756, -0.00035801015, 0.0005193462, 0.0002124735, -0.0002775846, -0.0004240358, -0.0001395007, -6.684361e-5, -6.1177266e-6, -6.752442e-5, 0.00023127862, -0.00055238523, -6.6206276e-6, 0.0001563047, -0.00051759975, 0.00079159136, 0.00010445952, 8.1849495e-5, 0.00078482734, -0.00016083462, 0.00013399827, -0.000355898, 0.00072290824, -0.00011470807, 6.371925e-6, -0.00019318883, 6.4861097e-6, -0.00034759796, -0.0001237178, -9.840322e-5, -9.061379e-5, -0.00013915599, 0.00011430293, 0.0009841167, -3.1393804e-5, -0.00016281776, 0.00025917395, -0.00062173227, -0.00022361193, -0.00037455588, 5.629805e-5, 0.00035298258, 0.00018790152, -0.00027415686, 0.0005904403, 0.00019316096, -0.00063090184, -7.867058e-5, 0.00024104945, 0.0006036581, -2.5919231e-5, 6.441777e-5, 7.50029e-5, 0.00029353163, 2.7935544e-5, -2.6603237e-5, -0.0001269349, 0.00037464953, -0.0006487756, 0.00016188258, -0.00022934444, 0.00016568947, 2.699733e-5, -0.00020259157, 0.00028648315, -0.00013853874, -0.00067452335, -7.510245e-5, -0.00017478592, -0.0003661166, -0.00013588065, 4.689213e-5, 0.00018526279, -5.511817e-5, -0.00027857537, 0.0005214273, 0.0003078399, 6.2074025e-5, 0.00014341145, 2.339287e-5, 0.00046111777, -2.420033e-5, -0.00033041506, -0.00018449628, -0.0002251972, 8.824687e-5, 0.00033847368, 8.572618e-5, 0.00055908534, 0.00018541624, -0.00011758944, -0.0004521331, 0.0003232789, -0.00017063085, 2.5808897e-5, -7.971873e-5, 0.0001906162, -0.00022533134, 0.00010882775, -1.3556107e-5, -0.00034276897, 0.00030624325, -0.000413149, 0.00018551656, 0.0001982105, 0.00023969515, -0.0002530047, -0.0005066648, -0.0002911384, 6.553619e-5, 0.00027267932, -0.00042962705, 0.00013465266, -0.0002882449, 0.00063404825, 0.00034621946, 0.000120308076, -0.00013343476, -2.3614706e-5, -7.295992e-5, 0.00071659783, 8.494171e-6, 8.94668e-5, 2.5039213e-5, -7.883537e-5, 0.00036086037, 0.00030126842, -0.00030971866, -0.00039019043, -0.0001341413, -0.0005961934, -0.00011623633, 0.0003160695, 0.0004644117, -0.00013061624, -7.755661e-5, 0.0002562684, 3.707702e-5, -0.00028320332, -1.2734274e-5, 0.00044855117, -0.00013267102, -5.871186e-5, -0.00033257477, 0.00022288415, -0.00090542476, -0.00029415247, -0.00016889501, -8.515308e-5, 4.9314738e-5, 0.0003214929, -0.000284907, 0.0003687334, -0.0004895876, -6.2204235e-5, -9.922848e-5, -0.00012312912, 0.0002207441, 9.106208e-5, 0.00041890328, 0.00016653586, -0.00034146657, 0.00018496328, -1.5075211e-5, 0.00010698222, -0.0005424925, -3.7915903e-5, -0.00011510086, -0.00028320143, 0.00027618668, -3.2178556e-5, -0.00022572537, 0.00018652307, -0.0002392262, 0.00033114673, -9.554403e-5, 0.00026082987, 0.00032416542, -0.00021052387, -0.00019693233, -6.730602e-5, -0.00040821402, 6.5372675e-5, 0.00015565006, 0.0002115782, 8.462615e-6, 0.00012337072, 0.00014006293, 5.5622066e-5, -0.00041496014, -2.9094359e-5, -0.00023702337, -0.0007376018, 3.7387264e-5, 4.7132994e-6, 7.949318e-5, -3.4215755e-5, 0.0001661394, 0.00020448338, -1.397844e-5, 0.000107359476, 0.00030373508, 0.00029529154, -0.0007337678, 0.00016655648, -0.00023612106, 0.00033472688, 0.00014119956, -0.00017553687, -0.0004910969, 0.0006991258, 0.00013097926, 0.00052452734, 0.0004289023, 4.9508075e-5, 9.012395e-5, -0.0006196185, 0.00031092088, 0.00015271972, -0.0016395919, 0.00013406343, -0.00050133956, 6.82461e-5, 0.00036597496, 0.00033761814, 0.00044834393, 0.00054016226, -0.00031501576, -0.00063623325, -0.00047362203, -0.00014221264, 0.00017676216, -0.00018962014, -0.00043501746, 0.0001222555, 0.00047369732, -0.00020008035, 0.00019170952, -0.00014484274, -0.0006116181, -7.040916e-5, -0.00054353924, 0.0002484875, -0.00037787133, -0.000109248685, -0.0005872583, 0.0003425858, 0.00044658236, -0.0003026494, -9.726762e-5, -5.1220442e-5, 0.0005568407, 0.00026854416, -0.00045213287, -0.00030873608, 0.00023309451, 1.3618044e-5, -9.122977e-5, -0.00026676204, -0.00025605454, 0.00011331743, 0.00026094486, -0.00092474796, -0.00037366615, 0.00018469301, 0.0003357611, 0.00021704288, 0.00036571122, 0.0015978827, -2.0136935e-5, 0.00044069294, -7.323462e-5, 0.00014398184, -0.004889272, -1.8216406e-5, -0.00089317415, 0.00021613194, 0.00043895197, 0.00024513397, 3.9714116e-5, 6.8226465e-5, -5.9341848e-5, -0.00019104294, -0.002528442, -3.4969027e-5, 0.00027523164, -0.00043221767, -7.2542236e-5, 0.0005092345, 0.00015709364, -0.0005271443, -0.00072312576, 0.00035572177, 0.0005386238, 6.459186e-5, 5.509267e-5, 0.00013525126, -1.1860206e-5, 0.00041118148, -0.0004108917, -0.00045117628, -4.4944674e-5, -0.00012745825, -0.00022705941, -0.0005721657, -0.0006407236, 0.00014607102, 0.000646609, -0.00016634238, -0.00027622553, 0.00016758844, -6.0552746e-5, 0.00037459546, 0.00010352731, -0.00030708837, -0.0004651599, -0.00030932963, -0.000106651656, -0.00031634784, -0.00029514276, -0.0009739128, 0.00017469696, -0.00021745624, 0.00034705843, -0.00057697773, -0.00037245904, -0.00030590832, 0.00020973348, -0.00019464116, 0.00015326566, 0.00017225149, 1.7038981e-5, 0.00027174817, -0.00027824947, 6.134498e-5, 8.213926e-5, -0.00013364945, 4.7643745e-5, 0.0003946632, -0.00078023685, 0.00017096785, 2.6505406e-5, 2.7873724e-5, -0.0004226495, 0.0001544017, 0.0005021194, 0.00047941168, -0.0017358719, -0.0017148237, -1.0826939e-5, -0.00026248494, -0.00023659898, -0.00034497792, -5.109605e-5, -0.00014411662, -0.000536032, -0.0024818992, -0.00020574505, -0.0001916193, 7.288094e-6, 0.00041567007, 0.0006972082, -7.897184e-5, 0.00030013648, -0.00031863435, -8.8411485e-5, -0.00053891505, -0.00027981156, -0.0005464918, -8.2592145e-5, 0.00018477233, -0.000115244475, 0.000553134, -0.00061414845, -0.0003959106, -0.00013425022, 0.00011764383, 3.598159e-5, 0.00010596111, 0.0005846727, 0.000691116, -4.2414977e-6, 0.0007305142, -0.00016232586, -0.00030192992, -0.0001609445, 0.00012298518, -7.1207614e-5, 0.00027956095, -0.0006289866, -0.0006546386, -0.00023478104, 0.0003036388, -0.0003048249, -9.7307275e-5, -0.0006380377, 0.0025357634, -0.00042527844, 3.5409077e-5, 7.4831856e-5, -0.00091084966, -0.0072868355, -2.1513217e-5, -0.0002603664, 0.0002731367, 0.00028018648, 0.0013515445, -0.000104664374, 8.729942e-5, -3.5878325e-5, -0.00022053809, -0.0049526365, -0.00046057274, -9.599579e-5, 0.00019850461, 0.00013661661, 2.3397567e-6, -0.0007281615, 0.0007642832, -6.987914e-5, -5.223075e-5, 0.00017558917, -0.00020383381, -0.00033206417, -9.523583e-5, 5.923398e-5, 0.000417422, 4.627403e-5, -0.00021092525, 0.00020279517, 0.00029807928, -0.00044446316, 4.0431147e-5, -0.0001672176, 0.00048314052, -6.831262e-5, 0.00027511135, 4.8412076e-5, 5.8338206e-5, 8.921687e-5, -7.185576e-5, 0.00023365697, -0.00025143797, -0.0006796131, 0.00019332704, -0.00019495533, -0.000379908, 4.5274326e-5, -0.001464272, -0.0006025615, -0.0013287438, -0.00017763283, 0.00017439765, -0.00029413938, 0.00035975705, -8.253342e-5, -0.00012241626, 0.00017882585, -0.000174425, 0.00028959961, 0.00022296465, -0.00018886008, -0.00013441358, -0.00019703127, 0.0002805316, 0.0001829531, 0.00012694576, 0.00026729127, 7.523937e-7, 0.0002982357, 0.00012047942, 1.1178184e-5, 8.1059115e-5, -0.00018238938, 0.00029369246, -0.0019087553, -0.0033379726, 0.004055395, 0.00023349372, 9.695977e-6, 0.00021470159, 0.00013668969, -3.2667842e-5, -0.00031531218, -0.0026080615, -7.3304276e-5, -0.00069508847, -0.0005025145, 3.1645577e-5, -0.0010211696, -0.00014370141, -0.00018033086, -0.00040150085, -0.00011867849, 0.00051843334, -0.00014155534, 0.00019759419, -0.00031726653, -0.00022784482, -0.00087233394, -7.6759294e-5, -0.00018091236, 0.0006019015, 0.00018306264, -0.0012894544, -2.7294956e-5, -0.00042488094, 0.0002756334, -0.00072308915, 0.0009423843, 0.00019573729, -4.576932e-5, 0.0003806006, -3.234525e-6, 0.00019593167, -0.00042139753, 0.0010334649, -0.00024023498, -0.0026591811, 0.00030130346, -0.0001645658, -0.000170276, -0.00017726969, -0.0016155792, 0.005452789, -0.0011565251, 4.1138524e-6, 0.00019914286, -0.002265259, -0.010113199, 0.00015028272, -9.808906e-5, -0.0005007709, 0.00029261233, 0.002332645, -0.00020930773, 3.089779e-5, -0.0001391406, -0.00022664244, -0.005398762, 6.430039e-5, -2.7409405e-5, -0.00021959668, 0.00015016178, 7.3516865e-5, -0.0011768532, -0.00024135412, 0.00017667722, -1.2107062e-5, -7.341964e-5, 2.9948002e-5, 1.42298095e-5, 0.00036178526, -0.00040336835, 7.073763e-5, 9.048573e-5, -0.00015206162, -0.00037739254, -0.00030651648, -0.00028338068, 0.00017630825, 0.0002483316, 0.000599843, -0.0007758438, -5.168423e-5, -0.00062274, -0.00017166253, 3.9624152e-5, -0.00026598628, 0.00054461905, 0.0001799385, -0.00049826835, -4.5779077e-5, -4.3371656e-5, -0.00034113898, 0.00058652315, -0.0011631222, -2.734579e-5, -0.0024993925, -0.00013882435, -2.8077888e-5, 2.2632055e-5, 0.00035981435, -0.00027039443, 0.00010754916, -0.00025114403, 0.0004148048, -2.0840587e-5, 5.641075e-5, -0.0002530166, -0.00016835138, 1.2316119e-5, -0.00016401646, 0.00033667198, -0.00034018475, -0.00014952013, 0.00019078093, -0.00036229813, 0.0001997193, -0.0003060409, 0.0003158601, -7.237839e-5, -0.0004298389, -0.0007782183, -0.0011000229, 0.014719974, 0.00035186025, -0.0001776105, -5.349495e-5, 0.00016761172, -0.0008632398, 0.00017864782, -0.0012895463, -0.00019838668, 1.9918269e-5, -0.0006237809, 6.805813e-5, -0.001099463, 0.00017040067, 0.00033467237, -8.236339e-5, 0.0005772357, -0.000109732326, -2.2736289e-5, -0.00023964736, 1.2089769e-6, 0.0003651633, -9.896233e-5, -5.042167e-5, -5.9160604e-5, -9.645252e-5, -0.00014667015, -0.0010579539, -0.00023546348, 0.00024899788, -0.00042957885, -0.00021314787, -0.0004605763, -0.00014967898, -0.0005904798, -5.282062e-5, -0.00047543904, -0.00011262019, -0.0005240123, 0.0004393359, 0.00046803872, -0.0010605286, 0.0001459508, -6.699276e-5, 0.0001433818, -0.000230695, -0.0013877597, 0.016306851, -0.00078223896, -0.00016322146, -0.00012052487, -0.0075614057, -0.0055620405, -1.637567e-6, -0.0005046449, 0.00033868582, -0.00024536313, 0.008686942, -0.00051611004, 0.0002640247, -0.0003952836, 0.0003326165, -0.0014593039, -0.0004694012, 2.8718421e-5, 0.0002296756, 0.000117406315, -0.00046813866, -0.0014550729, 0.00035609017, -3.4178924e-5, -0.00026507062, 0.0002505916, 0.000102055434, -0.00013912657, 7.271413e-5, -0.00025114146, 1.5991789e-5, -0.0003476233, -3.926053e-5, -0.0014424317, 1.3342864e-5, 0.0005197611, -0.00025813153, -0.0004525849, -0.0001110829, 0.0002738921, -0.0001604269, -0.00036323702, 0.00028630535, -0.00018397876, -0.00025346005, -5.769077e-6, 0.0002906917, 0.00014090755, 0.00040199, -1.4650412e-6, -0.00014112066, 0.00024254888, -0.00012775797, -0.0009314029, -0.0028118095, 0.00042668835, -0.00013979408, -0.0009258417, -3.716e-5, -0.00016546086, 0.0005164529, -0.0008512203, 0.00027496298, -0.00019667033, -0.00020486704, -0.00024487358, -0.00020077344, 0.00017054033, 2.5946185e-5, 0.00016964295, 0.00022986444, 0.00026854288, -0.0002560135, 6.17877e-5, -1.6489497e-5, 0.00022070236, 0.00043539796, 0.00016202492, 0.00026392852, -0.00018916639, 0.00067284936, 0.02273749, 1.478409e-5, -0.00042661355, 0.00040822296, 0.00037094954, -0.0041594356, -0.00024760095, -0.0012740594, 0.00041274383, -5.8308222e-5, 0.0006559516, 0.00011740169, -0.0003583609, 4.0245854e-5, -0.00023444087, -0.00034019517, 0.00047087925, -0.00033218347, -0.00021158415, 0.00044774415, 0.00021684507, -0.00045399443, -0.00055235485, -0.00020804176, 0.0006669523, 0.00013194437, 3.2101612e-5, -0.002859933, -6.188478e-6, 0.00042509945, 3.6206802e-5, -0.00013353929, -0.0003802283, 2.2724902e-5, -9.377812e-5, 7.4181065e-5, -0.00026250508, -0.00029776993, -0.00034954408, 0.0011765066, 0.00042900993, 0.00044741548, -0.00014721004, 0.00046988417, -0.00021307974, -0.00041710155, -0.00041982788, 0.02009943, 0.00035808317, -0.0004148641, -0.0009767718, -0.021151422, -0.0018683029, -0.00031216486, -0.0028632889, 0.0003098725, 0.00026476686, 0.012264009, 0.00013525966, 6.187655e-5, 0.00032487322, 4.6641686e-5, -0.002407722, -0.00035283505, 0.00012720298, 0.00026696856, -0.0003391776, -0.0005364856, -0.00047992266, -0.00042150254, -0.00021704318, 0.00030225713, 5.2666015e-5, 0.0007058921, 0.00023252066, 0.0005984357, -0.00057654607, -0.0004015178, -5.8691217e-5, 2.2462576e-5, -0.0037122683, 0.0005046018, -0.00011051028, 0.00012116972, 0.0003383831, 8.1377475e-5, -4.877818e-5, -0.0005157991, 9.134857e-5, -0.00044588064, 4.012042e-6, -0.00033589455, -0.0004547789, 0.00021806406, -0.0002610578, 0.00016794004, -0.00023044417, 9.513962e-5, 0.0005921767, -0.00062490656, 7.328767e-5, -0.0025913785, -0.0005002521, 0.00027802264, -0.0007205493, -8.3708284e-5, -0.00020363434, -6.179061e-5, -0.00022731733, -0.00019541259, 0.00026300058, 5.1379346e-5, 0.000103338636, -0.0006941976, 0.00030970978, -5.5253044e-5, -0.0008028805, 0.00034649821, -0.0001672499, -8.0679936e-5, -0.00047729546, -0.00028050374, 0.000576361, 0.00043229564, -0.00043474417, -0.00014216214, -0.0010313155, -0.00026746292, 0.003850123, -4.2377047e-5, -0.00021326756, -0.00019527602, 0.00035609058, -0.0024816096, -0.00025499173, -0.00043212253, -0.0004420671, 0.0001100911, -0.00013908488, 0.00032095006, 2.138471e-5, -0.00026005242, 4.7286765e-5, 0.00024966366, 0.00041806573, -0.00025255734, 0.00027288697, -0.0013478657, -0.000104517814, 5.302764e-5, -0.0005923678, -0.000191556, -0.00015523167, 0.00016018831, -9.51373e-5, -0.0045065023, 0.0007557882, -7.7052646e-5, 3.555471e-5, 0.00011932372, 0.0002165717, -2.4350951e-5, -0.000506161, -0.00018618908, -0.0005059672, -0.00022825217, -0.00014190795, 0.0006277472, -0.00012066263, 0.004695293, -0.00020596718, -0.00030501647, -0.00018671529, 0.00017243775, 0.00016412474, 0.001533217, 4.4385422e-5, 0.0002360544, -0.00015689313, -0.01210207, -0.0050470266, -2.644461e-5, -0.0015368597, 0.00024769286, -1.0236585e-5, -0.00078545406, -0.000308679, 0.00012920811, 0.00038887368, -0.00016368812, -0.0035608348, -0.00055560423, -0.00040488955, -5.9566406e-5, -0.0005364384, -2.4446492e-6, -0.0007791335, 0.00013225008, 5.9802573e-5, -0.0001552499, 0.00023091804, -0.0003851312, -0.00028369203, 3.7915597e-5, 0.00047062783, 0.00014386946, -0.0005613853, -0.0002551668, -0.0005515566, -0.00010002337, 0.00069634744, -0.00045464834, -0.00026612674, -0.00020388258, -0.00068286026, -0.000972911, 0.0006410226, 0.00022191726, -1.5869323e-6, -0.000259379, 0.0002125275, -0.00056638377, -0.0004600481, -0.00018493252, 0.00021718623, 0.00025535596, -0.00025762245, 2.732625e-5, 0.0013161603, 6.318263e-5, -0.00050902646, -0.00014215945, -0.00044074975, 0.00044743676, -0.00045886228, -1.191155e-5, -7.702601e-5, -0.00017487346, -0.0004406656, -0.00026224213, -0.00013595141, -0.0002728146, 0.00014149332, 0.00030787318, -0.0005566078, 0.00046486035, -0.00058048323, -0.0001107401, -0.00014479183, 0.00035535556, 5.9786144e-5, 0.00042574492, -0.00070658914, -0.00033593326, -0.003802732, -0.00019189918, -0.0049739103, 0.00030788968, -0.00017818747, -0.00013028666, -0.000121897116, 0.0007523242, -0.0001475735, -0.00024176558, 0.00026119323, 0.00043686494, -9.060217e-5, -0.00020601616, -0.00023638138, -0.00021449574, 0.0005746415, 1.960543e-5, 0.00048688744, -0.00028684584, 9.03915e-5, -0.0008918568, -0.000383464, 0.00019191699, 7.063516e-5, -0.00018565591, -0.00041240096, -0.00024039153, 0.00015353056, -0.0019455572, -5.7365043e-5, 6.950369e-5, -0.00020544641, -0.00023884515, 0.00013212948, -0.00014575166, 0.00018477735, -0.00013419866, -0.0011709712, -0.00013080407, -0.00063872506, -0.00051395904, -8.598395e-5, 0.0046898746, -0.0005683379, -2.2635073e-5, -0.00044160095, -0.0005488162, 0.00016775001, 0.00042474808, 4.171809e-5, -8.332585e-5, 0.0009824099, 0.00042294932, -0.001025876, -2.1252785e-5, 0.0021486962, 0.0002863335, 0.0003293496, -0.003207331, 5.8607575e-6, -7.370027e-5, 0.0003578781, -0.00036423947, -0.0033492432, -2.3789624e-5, -0.00037946578, -0.0003051044, 0.00032836312, -0.0013363229, 3.864693e-6, -0.00036522545, 0.00036738283, -0.0008526343, 1.928557e-5, -0.0014318418, -0.000105077306, -0.00018873038, 0.0031323486, 0.00011037268, 0.00041821125, -0.00055491616, -0.0002721902, -0.00038460473, -0.0002788785, 0.00020822967, -9.378304e-5, 0.00012864328, -0.00019195801, -0.00042646428, -0.0006595764, 0.00013428683, -0.0007647445, -0.00034510685, 0.00061384594, 0.000112539456, -0.00082101126, -7.585804e-5, 0.00023724492, 6.059795e-5, -0.0005467113, 9.175867e-5, 0.0005677475, -0.0007961033, -0.00081998727, 2.2145623e-5, -0.0002853814, 4.4505407e-5, -0.00015927808, 4.769323e-7, 0.00020338307, -7.100123e-5, -0.000395516, 0.00014637408, -0.00069633743, -0.000121280034, -7.171191e-5, 3.0637632e-6, -0.0002285813, -0.00027265208, -9.891012e-5, 0.00025679308, 0.00046677797, 0.00034259088, 0.00027480078, -3.4775425e-5, 6.684375e-5, 0.00018923669, -0.0017977837, -0.0005488899, 0.0007487743, 8.344357e-5, -8.666865e-5, 0.00016011158, -9.545732e-5, -0.000657536, -0.00030952037, -0.0010746343, -0.00036453042, 0.0003792703, -0.00029105772, -0.0002060466, -0.00028362346, -0.00020242092, 0.0001522283, -1.37129555e-5, -8.7746215e-5, 1.17577965e-5, 0.00019311073, 0.00037588776, -0.0005443758, -0.0002902135, -0.00031527734, -0.00020176388, 5.9820824e-5, 0.00012394915, 9.1486836e-5, -0.0010380573, -0.0004848828, -0.000101376514, -9.0975154e-5, -0.000103585444, 0.00033528596, 0.0002517283, -0.00056897034, 2.3156043e-5, -0.00063935434, -0.00015999857, -0.00017671613, -0.00015710975, -3.4105997e-5, 0.0017041913, 0.0010041274, -0.0006415608, -0.000113417125, -0.00039590162, 6.234753e-5, 0.006996301, 0.00011976382, -0.00020567274, -0.00045234975, -0.0021431332, -0.0022601646, -0.00062535034, -0.0010437034, -0.00014760933, 0.00040954468, 0.0017843382, -0.00041623446, 0.0006480728, 8.588739e-5, 0.00022248302, -0.0032952651, 0.0005302964, 0.00020085229, 5.393801e-5, -4.9569694e-6, -0.00017641475, -0.00052851083, -0.00016261761, 0.002207429, -0.0016442118, 9.871834e-5, -1.5943147e-5, 0.00039184012, -0.0003138068, -0.0009860838, 0.00011814023, 0.000994901, 0.00012747599, 5.7075453e-5, -0.0006901544, 2.8953547e-5, 0.0002786437, -0.00063959794, -0.0005082011, 0.00043789195, 7.133963e-5, -0.00042590912, -0.00021364389, -0.00055134966, 0.00048134365, 0.0004912052, -0.000274786, 0.00077945343, -0.0003153776, -0.00039930627, -0.0002995692, -0.00030238403, -0.0033930566, 0.00042870973, -0.0021964107, -0.00046429568, 0.0006269167, -0.00010273157, -6.231059e-5, -8.197301e-6, 7.0263464e-5, 0.00017277627, 6.054614e-5, -0.00021258648, 3.3217693e-5, -2.1778706e-5, 0.00022464401, 1.4371274e-5, -0.00018052658, 0.00049200497, -0.00022807955, 0.00016262797, -0.00028517863, -0.0001845608, 7.248728e-5, -0.00033350164, -0.00025821666, 0.0002828329, -0.0007289859, 0.0016522405, -0.0023140616, 0.008448735, 0.0005553505, -0.00046376494, -0.00034326653, -0.000115260445, -0.0020919961, -0.00023985338, -0.00189132, -5.1307765e-5, -0.0005511179, -0.0002843732, -0.00013193907, -0.00037985676, 0.00033927715, 8.0419304e-5, 0.00010159618, 0.00024542175, 0.0001285972, 0.00012257055, 6.167712e-5, -0.00019251832, -0.0008358515, -3.030584e-5, 0.0002655538, -0.0002910441, 1.4083463e-5, -0.00018948244, -0.00026476177, -3.4858138e-5, -0.00014124224, -0.00063404563, -0.0003216868, -0.00013406124, 9.2260365e-5, 6.5327484e-5, 9.5981966e-5, -0.0015200637, -0.0004386314, -0.00021924205, 0.0007842144, -0.00061261933, -0.0008651737, -0.00017166365, 0.00011500675, -0.0007953625, -0.0004699871, -0.00030028104, 0.0067683225, -4.1245014e-5, -0.00022027802, -0.0006930713, -0.0073264665, -0.0022461775, -0.00061772065, -0.0019859993, 0.00029205755, -0.00039551337, 0.005707906, 9.247542e-5, 0.00016415857, -0.0004035484, 0.00011783433, -0.0009783017, -0.00036404515, 0.0006203799, 0.0001881293, -0.00059761695, -0.00045777851, 0.0002495177, 0.00013114557, -5.906423e-5, -0.0018088182, 0.00088311906, 2.0698579e-5, 8.774918e-5, 1.378314e-5, -0.0018590514, -0.0001990433, -0.0008576359, -0.00023638987, -0.0012178004, -0.00029342418, 0.000103032486, 0.0005516857, 0.00029070865, 0.00018542152, -0.000109870496, 0.00029327688, 0.0004518397, 0.0004266484, 0.00012536936, -0.00063057424, 7.12748e-5, 2.776338e-5, -1.1650859e-5, 0.0002846338, 0.000116037554, 0.00013437962, -2.9158076e-5, -0.0023144349, 0.00080116215, -0.003075775, 1.5167623e-5, -0.0005661597, -0.00015358535, -1.07100905e-5, -0.00016955526, 0.00020180426, 0.00013793488, -0.00052273413, 0.00028999266, 0.00012172439, -0.000437833, 5.959468e-6, -0.00031553707, -0.00018186378, -0.0008611265, 0.00026784858, -0.0002565809, -0.0001859152, -1.5535301e-5, -0.00045728096, 0.000490479, 0.0005101035, 9.339407e-5, -0.00069987745, 0.0017058952, -0.0012360411, 0.023896279, 0.0005961948, 0.00024380599, -0.00014192349, -4.650511e-5, -0.0015052959, 8.1543505e-5, -0.0011462911, -7.061727e-5, -0.00032694687, -4.915897e-5, -0.0008855003, -0.00054057146, 0.00018094105, 0.00043795566, 3.4772875e-5, -0.0011656207, 0.00045927358, -0.00037889698, -0.00042219606, -0.00034411284, 7.0839276e-5, -7.269607e-6, -0.00029948514, -0.00039510723, -0.0001853538, 0.0004977918, 1.6471906e-6, 0.00012359016, -0.00021628798, -0.0001472322, -0.00038513207, -0.00013843006, 0.00011017735, -0.00041980602, -0.00038564624, -0.002773786, -0.00036334107, -8.324463e-6, 0.0018743804, -0.00021281364, 0.006397815, -2.5407877e-5, -5.541168e-5, -0.0002746893, -0.00025831204, 2.8405475e-5, 0.012808369, -0.00043495288, -0.00041035473, 2.1136839e-5, -0.005849862, -0.0034682218, -0.0016726361, -0.0012227342, -0.00060108106, 0.00024488315, 0.012807658, 0.00014261124, 0.00029399147, 0.00068534986, -0.00030693517, -0.0029109581, -5.6514546e-6, -4.1011488e-5, 0.00015221376, 0.00026712063, -0.0014448354, -0.0005688619, 0.00017417806, -2.3371129e-5, -0.0013540449, -0.000110341985, -0.00037788152, 0.00013964552, 0.00016797737, -0.0009502956, 0.00036138442, -0.0005004612, -0.00047896316, -0.0019063647, -3.1406307e-5, -0.00031674342, 0.000452165, 3.5837504e-5, 0.00014341902, 0.00029968156, 0.0001278809, -0.00026039238, -0.00015486669, -0.0006698743, -0.00015960663, 8.506714e-5, -0.000103249135, 0.000914919, -0.00026991722, -1.1156893e-5, 0.000116940275, 0.00041325175, -0.00027335488, 3.4095094e-5, -0.0014193732, 0.00016420506, -0.0004930709, -0.00028515144, -1.860609e-5, -2.5407537e-5, 0.00022288559, -0.0004571102, 0.00038949208, -0.0006818538, -0.00014147745, -0.00042675226, -0.0003036071, 3.4072484e-5, 0.0001661351, 0.0001892582, -0.00020429736, 0.00016048359, 5.438511e-5, 0.00018401515, -0.0005116785, 0.0005085802, -0.0003573616, 0.00046778895, -0.00022328802, -0.0011822358, 2.6713817e-5, 0.017072344, 0.00045347144, -0.0002170614, -0.00020424026, -7.1498194e-5, -0.0002624302, -0.00058697845, -4.999618e-5, -0.0005429351, -2.3463464e-5, -0.000114720904, 0.00020706444, -0.00023836477, -9.903811e-6, -0.00037166738, 0.0008107794, -0.00094284856, 0.00070456543, -0.00036356182, -0.00040156988, -0.00054649124, 0.000111110465, 0.00029372383, 0.00026624944, 0.00026580988, -0.00036366034, 0.00011425905, -0.0005817469, -0.0005059626, -0.0003188351, 0.0004608442, -5.877741e-5, -0.000209119, -0.0003059131, -0.00023300476, -5.1643365e-5, 0.00013629132, -0.0002662969, 0.00077500805, 0.0005442624, 5.1767805e-5, 0.004019816, -0.0005436339, -1.3691532e-5, -3.5635672e-5, -1.8240446e-5, -0.00024113088, 0.008307925, 0.00023925958, -0.0002442256, -8.676643e-5, -0.00069431943, -0.0042588054, -9.1331865e-5, 0.0008085007, -4.9379745e-5, 0.00037315668, 0.01044264, -6.2294064e-5, -7.997467e-5, 9.547717e-5, 0.00024577705, -0.0026238179, -0.0005066423, 0.00036270003, 0.00022346522, -0.000347861, -0.00053303014, -0.0008868963, 0.00016621481, 0.0005518104, -3.7050355e-5, 0.0002590724, -0.00038395327, 0.0002782262, 0.0005515087, -0.00026317267, -0.00030184633, -8.660205e-5, -0.0005319755, -0.0008151597, 0.00020046082, 0.00029136208, -0.00025281627, -3.1372165e-5, 0.00032301768, -0.00032685837, -0.00012554112, -3.1900614e-5, 8.999603e-5, 0.00033518721, 0.0003755915, 0.00035533227, 0.0004907369, 0.00046863232, 0.00037744336, 0.0002181644, 0.00031775286, -0.0003371042, 0.00036892772, 0.00016294105, -0.00054302113, 0.00013993811, -0.00051220437, 0.00017110615, -0.0002925209, -0.00054345175, -0.00071298296, 0.00030227902, 0.0004948037, -0.0002656352, 0.0003854896, 6.754041e-5, -0.00025454137, -1.6929087e-5, 0.00029949445, -9.264965e-5, -0.00014119987, 0.000382259, -3.282717e-5, -0.00019894344, 4.5121593e-5, 0.00014289991, 0.0002872755, -3.2314412e-5, 2.2061256e-5, 0.001117755, -0.0005976271, 0.0008462977, -0.00015942668, -0.0004017588, 0.00041362084, 0.0006103029, 0.00020819111, 8.081737e-5, -0.00018911205, -0.00026970648, -0.00057418214, 1.01878995e-5, -0.00039171052, -0.00023168197, 7.061118e-5, 0.0001760754, -0.00045298264, 9.72016e-5, -3.0731808e-5, 6.993539e-5, 0.0002754506, -3.7117698e-5, -0.000464547, -0.00022092399, 0.00013921088, -0.0009472949, 0.0007925471, 0.00042653928, -0.0017378901, 0.000110400986, -0.00027812933, 0.00018915803, -0.00014237463, -0.0003708411, 8.460129e-5, -5.391931e-5, 0.0003223463, 0.00010433638, 0.0004440166, 0.0005361291, 0.00015521797, -0.00030394024, -0.0018591235, 0.00033074897, 0.00038241126, -9.0653484e-5, 0.00025684037, -0.0001807643, 0.00084304065, -9.148917e-5, 0.00036581804, -0.0003429936, -0.0007018051, -0.0007516806, -0.00059052947, -0.00034833656, 0.00011420697, -5.2248815e-5, 0.00058374484, -0.00011282979, 0.0006450129, 9.5154355e-5, -0.00083481154, -0.00074513146, -0.0021829323, -0.000605595, 0.00023013409, -1.2876397e-5, -0.0006188039, 7.3842175e-6, 0.0002346858, -4.9866918e-5, 0.0004316252, -0.00027846658, -0.0003226721, -6.7924564e-5, -0.00021211486, -0.0009079374, 2.561538e-5, 8.301829e-5, 7.083403e-5, -0.000703919, -0.0007969247, -0.00043719192, -0.00026159637, -0.0005124957, -0.0002726153, 0.00017847083, -0.00023863045, 2.6607777e-5, 7.581082e-6, 4.73025e-5, 7.3206844e-5, -5.8356207e-5, 0.00039185243, 0.00012113879, -0.0008844783, 0.00012824051, -4.3217997e-6, 7.759279e-5, -0.00037813094, -0.00038179726, 0.00038106082, 4.1152645e-5, -3.1239422e-5, -5.5366287e-5, -0.00010464294, 0.00053251704, -0.00024062088, 0.00044893505, -0.00039320858, 0.00039069503, -4.2306332e-5, -0.0003414889, 2.3265073e-5, -0.00040049228, 0.0001859874, 2.2903056e-5, -0.00016759915, -0.0004902469, -0.00015156312, 7.795136e-5, 0.000121322184, -0.0001527742, 0.00011653853, 5.9673937e-5, 8.955724e-6, 0.0004800049, -0.0004042759, -4.3398053e-5, -0.00045159343, -0.00029323954, -0.00041683472, 0.00035819292, -0.00010765621, 0.000594254, 0.00023351212, -0.0004266672, 0.00014127968, 0.00026268171, 0.00024697083, -0.0003400333, 0.00028590756, -7.803613e-5, -0.00021512454, -0.00032658258, -0.00038005758, 0.00092843425, -0.00010643692, -0.00021059862, -0.0005442626, 0.00027864322, 0.00026829474, 0.00046093622, -4.9916933e-5, 0.00010541016, -0.0018178555, 9.6961056e-5, -5.3740387e-5, 0.00086281437, -0.00036140156, -0.00022575023, 0.00011892528, 0.00021296994, -8.011999e-6, -0.00014578378, -0.00014803055, 0.00017131386, 8.70484e-5, -2.454784e-5, -0.0016473997, -5.264151e-5, -0.00037305502, 0.00015760954, 1.7404243e-5, 6.5777545e-5, 0.0016227955, 2.3093371e-5, 0.00094817806, -0.00041130892, -4.2482032e-5, -0.0008770047, -6.2489125e-5, -0.00030333284, 8.775697e-5, 0.0003082307, 0.00034055792, -0.0002942253, 0.00012239642, 9.324198e-5, 0.00040988642, -0.00014019871, 5.0632403e-5, 9.903041e-5, 0.00036857268, -3.6351237e-5, -0.00038162083, 3.2323198e-5, -5.2944615e-5, -0.0001558361, -9.365072e-5, 0.0007589021, -0.0004478396, 0.00030924316, -9.0852714e-5, -0.000555368, 0.0002975159, 8.3809035e-5, 0.0003506662, -0.0010591972, -0.00051675626, -0.0004256846, -0.00012869861, 0.00030093722, 0.00053283013, 0.00012723655, 1.4723122e-5, -0.00038781186, 9.062799e-5, 0.00015937492, -0.00014808904, 1.9375297e-5, -0.0003722136, -2.822311e-5, 0.00033369614, 0.0001223703, -0.00013537033, -7.133804e-5, 5.274018e-5, -0.00012216935, -0.00054132123, -0.000114912924, 0.0004502383, -0.00061442243, 6.56225e-5, 0.00027818955, 0.00011420692, 0.00017792544, -2.3094244e-5, -0.00016814112, 0.00010173404, -6.641386e-5, -0.00025445022, -0.00021835646, 0.00020693026, -9.990442e-5, -0.00030882962, 0.00014647949, -0.00039632607, 2.9314173e-5, 0.00014652681, 0.00031976725, 0.0001629081, -0.00018260865, 0.0007716459, -0.0008104794, 0.0005342225, 0.0041166022, 0.00042758707, 0.00017222052, 0.0002903662, -0.0001486019, 2.6075397e-5, 2.7122838e-5, -0.00031933005, -1.9008436e-5, 5.5423694e-5, 0.0001573693, -0.0002343767, -0.00037688823, -0.0003227474, 0.00019092388, -0.0006781422, 0.0004493495, 0.0004086655, 0.00021273272, 0.000324025, 0.00041644377, 0.00024676239, 4.510934e-5, 2.6949532e-5, 3.2973956e-5, -0.00020496668, -9.89411e-5, -0.0015958102, -0.00047114101, -0.00029329755, 0.00043089723, -0.0004044501, 8.5188054e-5, -0.00019298134, -0.0002663293, -5.9818678e-5, 0.00027415485, 8.870948e-5, 0.0003188323, 8.79663e-5, -0.0001555324, 0.00096198404, -0.0001380437, -0.0002645138, -0.00016980151, 0.00027607047, -6.17393e-5, 0.0029049874, -0.00030498466, 3.4277924e-5, 0.00017190496, -0.0022730052, -1.6151043e-5, -0.0002793547, -0.00047959274, 0.00015877078, -5.4291568e-6, 0.0014376948, -0.0002926794, 0.0003635049, 0.00044639633, 0.00011441686, 0.00012773897, 0.00011464546, -0.0003676287, -0.0003480467, 0.0005370909, -7.8994875e-5, -0.00018214782, -0.0006197626, -0.00019297366, -0.00016954489, -0.00033852903, -0.00036371106, 0.0004366871, 0.00011944135, -0.0014028561, -0.00013710167, 0.00014074091, 5.5208122e-5, -0.0007012964, -0.00025981944, 0.00024788536, -0.0006282991, -7.1834496e-5, 0.00023676762, -0.00012859041, 0.00017319522, -0.0007619572, 0.00034536197, -0.00024399761, -0.00021928568, 0.00027503003, -0.00029609262, 0.00034732372, -0.00020891853, 0.00015461007, -0.00020807068, -0.00018900308, -0.00029159512, 0.0001939543, -0.0003830188, -0.00028864128, 0.0002570567, 0.00035539942, 0.00031169446, 0.00041387585, -1.1131019e-5, 0.0005024523, -0.00020503122, 0.00042607434, 0.00032657915, -0.00029236026, 0.0003408552, -0.00015852999, -6.7470966e-5, 0.00021933089, -0.00044270355, -0.00021997075, 0.00014536364, 9.063298e-6, 0.00030898108, -0.0005711945, 4.792957e-5, 0.00011699776, -6.159419e-5, -0.000489814, 1.4850008e-6, 0.003927834, 0.00010143286, 0.0005559307, -3.7999038e-5, -0.0003133534, -0.00091854273, -0.00013876203, 0.00022781795, -0.0002559837, 0.00025849475, 0.00035538257, -1.1716906e-5, -0.00016751562, 0.0002308836, -0.00024118842, 0.0002674568, -5.2900657e-5, 0.00021103246, 0.00043173137, 0.00015591661, -2.8383916e-5, 0.0005113662, 0.00011234435, 5.0613016e-5, 0.00018428054, -7.8434154e-5, 0.00017720791, -0.0019642876, -5.8840476e-5, -0.00038396244, -0.00020250469, -9.1135335e-5, 1.3516546e-5, 0.00028403781, 7.59797e-5, -1.6384054e-5, 0.0001746805, 0.00012548175, -0.00023730051, 0.0005381303, 0.00022169184, 0.00070567144, -0.0004340452, -0.00051201234, 0.00083742326, 0.00025246476, 0.00015236871, 0.0028893887, 0.00054742536, 0.00066222413, 0.00013425862, -0.0035448247, 3.745679e-5, 0.00053998106, -0.0012191344, -0.0002123021, -0.00044549763, 0.0015017918, 0.00020731894, -0.00018249388, 6.754824e-5, -0.00033728953, -0.00038869103, 0.00019204293, 0.00023265302, 0.0008044896, 0.00024721585, -7.827113e-5, -9.313236e-5, 9.987729e-5, 0.00015743866, -9.170248e-5, -7.426532e-5, -0.00018729153, 4.421403e-5, -0.00010325083, -0.0014442289, -0.00015830621, 0.00030272038, 0.00022691608, -0.001357124, 7.791323e-5, 7.023361e-5, -0.0002299234, -6.615659e-6, -4.3114073e-6, -4.8595022e-5, 0.00019309795, -0.0001761485, 0.00014917307, 0.00013512728, 0.00017377448, -0.00039143497, -7.755364e-5, 0.000105064486, 0.00037121066, 0.00049348705, -1.4806802e-5, -0.0002085774, 6.4062566e-5, -1.063803e-6, 0.0001937514, -0.0001296155, -0.00018780187, 2.4213537e-5, 0.00022797818, 0.00020348222, -9.766646e-6, 0.00027953176, 0.00020458513, 0.00011943881, 0.0008394936, -0.0001667949, 0.00026225313, -0.0004267563, -0.00012593679, 0.00030787775, -0.000477519, -0.00026671193, -4.7562797e-5, 0.00019237789, -0.00013622286, -7.312159e-5, -0.00027663397, 0.00019791201, -0.00056139636, 0.00020370733, -0.00022534367, 0.0005565201, 3.519272e-5, -0.00040593397, -0.00011898159, -0.0002747903, 0.00023706621, -0.000485559, -0.00033674363, 0.00012492604, 0.0004829036, 0.00036197904, 0.0003414071, -3.0114556e-5, -0.0004497059, -0.0007212086, -0.0004540099, -9.073416e-5, 0.0002090063, -0.00035682254, -0.00020261214, -0.00034277348, -0.0006200098, 0.00030736063, -0.0006235962, 0.00025357827, 0.00019742709, -0.00018914073, -0.00012984281, 0.00027780462, -0.0005628211, 0.000156793, -0.00039454503, -0.0003656397, 1.836619e-5, -3.4964825e-5, 0.00014654601, 0.000679332, -5.9367754e-5, 5.6383367e-5, -0.00020721252, -6.757154e-5, -0.0003993845, 0.00023808834, 2.8599461e-5, 5.4095264e-5, -0.0002805241, -0.00019097466, 0.0006885573, -0.00041924088, -2.1504931e-5, 4.24359e-5, 3.320314e-5, 1.9901634e-5, 0.00018268243, 3.533725e-5, 7.218152e-5, 0.00011703175, -8.618053e-5, 0.00041512147, -0.00031289077, -4.2344327e-5, -0.00042902754, 0.00039236384, 0.0005773324, 3.725965e-5, 3.941296e-5, 0.00017334595, 0.00015692491, 0.00041555823, -0.00024184617, -0.00020878152, -0.00050037797, 0.00067581114, -3.5259214e-5, -0.00015624645, -0.000104741666, -0.00056476344, -0.00029178642, -8.4989064e-5, 0.00037935158, 0.00024328007, -0.00041893488, 0.00028385053, -0.0003907795, -0.00024472465, -0.00025492843, 0.00020045038, -0.00022622981, -0.00024550094, -0.0003380587, 0.00042042398, 7.495307e-5, 0.00031569906, 0.00015471294, 0.00016227072, 1.102384e-5, -0.00055013376, -4.7199243e-5, -0.00046136547, -7.514659e-5, 0.00013189063, -7.498514e-5, 1.49933285e-5, -3.7804894e-5, -0.00015588527, 6.634387e-5, -0.00074136764, 0.00039483636, -0.0002047258, 0.0003446641, -4.579888e-5, -4.4963002e-5, 3.863894e-5, -0.00017763015, 0.00021016096, -0.00027192791, -0.00043100916, -0.000266836, 0.00010726604, 3.1595173e-5, -9.9250465e-5, -7.734273e-6, -4.643637e-5, -6.589396e-5, 7.902291e-5, -0.0004980031, 5.9055965e-5, -0.00024792118, 7.908114e-5, -2.5978157e-5, -0.00054128305, -0.0004408242, -0.00045065634, -0.00016159686, 0.00021152172, 0.00035130957, 0.00016682906, -0.00042906415, -0.00017665222, 0.00021304615, -1.3093417e-5, -5.4101143e-5, -0.0005233636, 0.000102709586, -0.00014315349, 0.00039302232, -4.0926938e-5, 0.00027787584, 